{
    "in_shape": [
        500,
        null,
        2
    ],
    "layers": [
        {
            "type": "lstm",
            "activation": "tanh",
            "shape": [
                500,
                null,
                64
            ],
            "weights": [
                [
                    [
                        0.007820270024240017,
                        0.009089255705475807,
                        -0.21015210449695587,
                        -0.4654042422771454,
                        0.2720015347003937,
                        -0.017821379005908966,
                        0.09815723448991776,
                        0.5528566241264343,
                        -0.2850787043571472,
                        -0.4281488358974457,
                        -0.08741343021392822,
                        -0.2176450490951538,
                        -0.3472976088523865,
                        0.1696176528930664,
                        0.08505574613809586,
                        0.1592506468296051,
                        0.020207226276397705,
                        -0.13890071213245392,
                        -0.07430015504360199,
                        -0.07395793497562408,
                        0.13151633739471436,
                        0.10697032511234283,
                        0.13807937502861023,
                        0.014574595727026463,
                        0.3926037549972534,
                        -0.3608715534210205,
                        -0.18139620125293732,
                        -0.015763849020004272,
                        -0.04665762558579445,
                        -0.14953327178955078,
                        -0.010244905017316341,
                        0.080750472843647,
                        -0.3161526024341583,
                        -0.07897311449050903,
                        0.22033575177192688,
                        -0.046149540692567825,
                        0.14571981132030487,
                        0.007940473966300488,
                        -0.11833619326353073,
                        -0.5838385224342346,
                        -0.20991064608097076,
                        -0.19078923761844635,
                        -0.024895595386624336,
                        1.1758006811141968,
                        0.10472287982702255,
                        0.10714628547430038,
                        -0.40463995933532715,
                        0.011357326991856098,
                        0.08616452664136887,
                        -0.04392337426543236,
                        -0.18976344168186188,
                        0.07767152786254883,
                        -0.03568284586071968,
                        0.10059481114149094,
                        -0.039891403168439865,
                        -0.008781608194112778,
                        -0.15970388054847717,
                        0.028231754899024963,
                        -0.5932740569114685,
                        0.25063222646713257,
                        0.20920953154563904,
                        0.08294254541397095,
                        -0.06459056586027145,
                        0.1408390998840332,
                        -0.07874209433794022,
                        0.18387670814990997,
                        -0.4385918080806732,
                        -0.08906912058591843,
                        0.29665711522102356,
                        -0.04297502338886261,
                        -0.20003969967365265,
                        -0.1892673671245575,
                        -0.12675583362579346,
                        -0.6984469294548035,
                        -0.2398064136505127,
                        0.08912289142608643,
                        0.022555001080036163,
                        0.07636310905218124,
                        -0.08073770999908447,
                        0.26362791657447815,
                        -0.056873518973588943,
                        -0.026503993198275566,
                        0.04085278511047363,
                        0.39319220185279846,
                        0.3000704050064087,
                        0.3505478799343109,
                        -0.010427780449390411,
                        0.1327075958251953,
                        0.34924086928367615,
                        -0.31735551357269287,
                        -0.10417130589485168,
                        0.13872364163398743,
                        -0.5025473237037659,
                        0.05555868521332741,
                        0.0411822609603405,
                        -0.11142610758543015,
                        -0.055763207376003265,
                        0.059254731982946396,
                        0.06517000496387482,
                        -0.09328523278236389,
                        -0.5928786993026733,
                        -0.042600374668836594,
                        0.19146688282489777,
                        -0.19510547816753387,
                        0.034249551594257355,
                        0.006409871391952038,
                        -0.06384006887674332,
                        0.4648481607437134,
                        0.12698738276958466,
                        0.18638384342193604,
                        0.08966557681560516,
                        0.02953954041004181,
                        -0.10483594983816147,
                        -0.02712998539209366,
                        -0.13407455384731293,
                        0.03753257542848587,
                        -0.09351477771997452,
                        0.16927272081375122,
                        0.05130491033196449,
                        -0.12270689755678177,
                        -0.09919797629117966,
                        0.2561715245246887,
                        -0.5262739658355713,
                        0.39662498235702515,
                        0.28917407989501953,
                        -0.04426906257867813,
                        0.03990667685866356,
                        -0.07252833992242813,
                        -0.14177371561527252,
                        0.08426705747842789,
                        0.19922466576099396,
                        0.1312093287706375,
                        -0.33278024196624756,
                        -0.13804283738136292,
                        0.15527202188968658,
                        -0.12608011066913605,
                        0.5696789622306824,
                        0.24755032360553741,
                        -0.12114071846008301,
                        -0.11392451822757721,
                        -0.13834349811077118,
                        -0.14646442234516144,
                        0.0571683868765831,
                        0.22914431989192963,
                        -0.10500390082597733,
                        0.24381786584854126,
                        -0.08420683443546295,
                        0.5604926347732544,
                        -0.09975837916135788,
                        0.1339792162179947,
                        -0.22364021837711334,
                        0.1325962096452713,
                        -0.12503772974014282,
                        0.09905510395765305,
                        -0.27120959758758545,
                        0.25163885951042175,
                        0.07928759604692459,
                        -0.19959817826747894,
                        -0.02779766172170639,
                        -0.004963831976056099,
                        0.3869461715221405,
                        0.10096129029989243,
                        0.1851557046175003,
                        -0.03705967590212822,
                        -0.48103129863739014,
                        0.11435793340206146,
                        0.28276336193084717,
                        0.03996557369828224,
                        0.3405267000198364,
                        0.16074219346046448,
                        0.20481353998184204,
                        0.2952273190021515,
                        -0.03198942542076111,
                        0.2295999526977539,
                        -0.7929288744926453,
                        -0.14154981076717377,
                        0.23478654026985168,
                        -0.3255688548088074,
                        -0.04436882957816124,
                        -0.07531657814979553,
                        -0.13103491067886353,
                        -0.07898944616317749,
                        0.13666096329689026,
                        0.01020453218370676,
                        -0.03718229755759239,
                        0.08407618850469589,
                        -0.10520283132791519,
                        -0.5305590033531189,
                        -0.48759400844573975,
                        -0.23385241627693176,
                        0.213515505194664,
                        -0.023922394961118698,
                        -0.26956939697265625,
                        -0.11752378940582275,
                        -0.06714644283056259,
                        -1.4000697135925293,
                        0.9349360466003418,
                        -0.15084746479988098,
                        -0.0815463587641716,
                        -0.7012330889701843,
                        -0.21244961023330688,
                        -0.4947051703929901,
                        -0.3281695544719696,
                        -0.3197195827960968,
                        0.19112347066402435,
                        0.6062018275260925,
                        0.0018857554532587528,
                        0.09157335758209229,
                        -0.22633683681488037,
                        0.1529289335012436,
                        0.057877615094184875,
                        0.004282435402274132,
                        0.37741735577583313,
                        0.44407185912132263,
                        0.049455199390649796,
                        0.17244453728199005,
                        0.10936682671308517,
                        -0.6891981363296509,
                        0.1783551424741745,
                        0.07668021321296692,
                        1.0880244970321655,
                        -1.2939956188201904,
                        -0.08301530033349991,
                        -0.1872502714395523,
                        -0.06612148880958557,
                        0.04474024847149849,
                        -0.09685270488262177,
                        -0.047122251242399216,
                        0.5414350032806396,
                        -0.007769820746034384,
                        0.08695672452449799,
                        -0.5584136843681335,
                        -0.11864941567182541,
                        -0.062240201979875565,
                        -0.07922230660915375,
                        -0.5697534084320068,
                        0.47065067291259766,
                        -0.27093809843063354,
                        0.7572517991065979,
                        -0.6234179735183716,
                        0.15623058378696442,
                        0.11629269272089005,
                        -0.21362191438674927,
                        0.25612872838974,
                        0.07089538872241974,
                        0.1254146695137024,
                        0.08811842650175095,
                        -0.02517460286617279,
                        -0.12297741323709488,
                        0.011547934263944626,
                        -0.2394239455461502,
                        1.5480860471725464,
                        0.278928279876709,
                        -0.2507435083389282,
                        0.41658860445022583,
                        0.19270600378513336
                    ],
                    [
                        -0.1611725091934204,
                        -0.08751839399337769,
                        0.028328951448202133,
                        -0.07998224347829819,
                        0.3384896218776703,
                        0.007161508314311504,
                        -0.10137570649385452,
                        0.5119337439537048,
                        0.0954795628786087,
                        -0.05115922912955284,
                        0.08006297796964645,
                        -0.1552390456199646,
                        0.17941652238368988,
                        0.046247001737356186,
                        -0.01425906177610159,
                        -0.028932787477970123,
                        -0.049097321927547455,
                        0.06806042790412903,
                        -0.017963001504540443,
                        0.3228985369205475,
                        -0.08893644064664841,
                        -0.06489533931016922,
                        0.13350647687911987,
                        -0.11332540214061737,
                        -0.030702661722898483,
                        0.007918369956314564,
                        -0.007148432079702616,
                        0.023757824674248695,
                        0.07860483974218369,
                        0.10584687441587448,
                        0.03757220134139061,
                        0.11342518031597137,
                        0.03518451750278473,
                        0.04334964230656624,
                        0.0715627372264862,
                        -0.135129913687706,
                        0.2638115882873535,
                        0.04913146048784256,
                        0.0700613483786583,
                        0.22664949297904968,
                        0.08061850816011429,
                        -0.12269720435142517,
                        0.09434738010168076,
                        0.5430988669395447,
                        -0.14396756887435913,
                        0.10102695226669312,
                        0.26518264412879944,
                        0.04387351870536804,
                        0.23663993179798126,
                        -0.08263180404901505,
                        0.1361415982246399,
                        0.09448084235191345,
                        0.06253226846456528,
                        0.11148976534605026,
                        0.04321626201272011,
                        0.03078988380730152,
                        0.5074381232261658,
                        -0.13511085510253906,
                        -0.002067764289677143,
                        0.21604283154010773,
                        -0.0861717164516449,
                        -0.09479629993438721,
                        -0.12149740755558014,
                        -0.010150033980607986,
                        -0.12167040258646011,
                        0.13060906529426575,
                        0.14701414108276367,
                        -0.044717639684677124,
                        0.07796382904052734,
                        -0.03735949844121933,
                        0.012207948602735996,
                        0.19096188247203827,
                        0.05053957179188728,
                        -0.06469810009002686,
                        -0.010185145772993565,
                        0.015362868085503578,
                        -0.01240155566483736,
                        -0.1507856547832489,
                        0.05963146686553955,
                        0.02758948877453804,
                        -0.10240428149700165,
                        -0.04268011078238487,
                        -0.057451095432043076,
                        0.05875656008720398,
                        0.02837107889354229,
                        -0.052988506853580475,
                        -0.07833496481180191,
                        0.22330573201179504,
                        -0.013528718613088131,
                        0.03227745369076729,
                        -0.055816520005464554,
                        0.12850581109523773,
                        -0.22259005904197693,
                        0.10898697376251221,
                        -0.2438374161720276,
                        0.03181790933012962,
                        -0.04399554803967476,
                        0.0890328586101532,
                        -0.03188425675034523,
                        0.11936293542385101,
                        0.13353988528251648,
                        0.01389500591903925,
                        -0.05727241933345795,
                        -0.1580612063407898,
                        -0.1503482311964035,
                        0.04070155322551727,
                        0.002533283783122897,
                        0.08975587785243988,
                        0.12463700771331787,
                        -0.03574704751372337,
                        -0.005285471212118864,
                        -0.1294642835855484,
                        -0.11730965226888657,
                        0.10326551645994186,
                        0.18472500145435333,
                        0.006964467465877533,
                        0.1651921570301056,
                        -0.022053221240639687,
                        0.12979832291603088,
                        -0.09172680974006653,
                        -0.042357396334409714,
                        0.11629664152860641,
                        0.06842969357967377,
                        -0.1854761838912964,
                        0.02093338966369629,
                        -0.02530919387936592,
                        0.05526624619960785,
                        -0.08397331088781357,
                        -0.12308476120233536,
                        0.08540523052215576,
                        0.03627215325832367,
                        0.041229769587516785,
                        -0.09526491165161133,
                        0.011490846984088421,
                        -0.10137523710727692,
                        -0.034548014402389526,
                        -0.015970004722476006,
                        -0.0728730857372284,
                        -0.036434367299079895,
                        0.09742226451635361,
                        0.09451165795326233,
                        -0.08602069318294525,
                        -0.008558101020753384,
                        0.10546046495437622,
                        0.1383758783340454,
                        -0.12358687072992325,
                        0.10105238854885101,
                        0.02756888046860695,
                        -0.02291232720017433,
                        0.027388853952288628,
                        -0.07270984351634979,
                        -0.08319884538650513,
                        -0.0816493108868599,
                        -0.0861673429608345,
                        0.005824841558933258,
                        0.03985637426376343,
                        0.008941778913140297,
                        -0.0728221908211708,
                        -0.03682418912649155,
                        0.04946846887469292,
                        -0.03833741322159767,
                        -0.08726190775632858,
                        -0.019628891721367836,
                        0.022928250953555107,
                        0.10804761946201324,
                        0.04296641796827316,
                        -0.048449162393808365,
                        0.06068933382630348,
                        -0.003064117394387722,
                        0.09386217594146729,
                        0.034046199172735214,
                        0.10587505251169205,
                        0.032547108829021454,
                        0.007899397984147072,
                        -0.0654851645231247,
                        -0.1444636881351471,
                        0.05761696770787239,
                        -0.022556247189641,
                        -0.08059076219797134,
                        -0.014030487276613712,
                        0.05828167870640755,
                        -0.0865827351808548,
                        -0.08813975751399994,
                        -0.08485239744186401,
                        0.061201538890600204,
                        0.13453808426856995,
                        -0.001046125777065754,
                        0.04022607579827309,
                        -0.06857813894748688,
                        -0.02366003952920437,
                        -0.057496216148138046,
                        -0.07537996023893356,
                        -0.15947827696800232,
                        0.0544792041182518,
                        -0.08498024940490723,
                        -0.09762562811374664,
                        0.04693637415766716,
                        -0.0283224917948246,
                        -0.011292601004242897,
                        0.34747114777565,
                        0.1829572319984436,
                        0.025387821719050407,
                        0.12331893295049667,
                        -0.03875008970499039,
                        0.07749125361442566,
                        -0.1617298573255539,
                        0.022056564688682556,
                        0.08778928220272064,
                        -0.1961270272731781,
                        -0.0473935641348362,
                        -0.1161271184682846,
                        0.11579378694295883,
                        -0.023910241201519966,
                        0.1700214296579361,
                        -0.11799514293670654,
                        0.17243170738220215,
                        -0.09458788484334946,
                        -0.08788012713193893,
                        0.12808899581432343,
                        -0.0024113538675010204,
                        -0.2434748113155365,
                        -0.09409499168395996,
                        -0.042460594326257706,
                        -0.09885800629854202,
                        -0.09276852011680603,
                        0.029939252883195877,
                        -0.15983258187770844,
                        0.14115604758262634,
                        0.08920442312955856,
                        0.14607761800289154,
                        0.2604331076145172,
                        0.06779586523771286,
                        -0.00882663019001484,
                        -0.03142188489437103,
                        0.051771171391010284,
                        0.016742108389735222,
                        -0.052772294729948044,
                        -0.03226948902010918,
                        0.32370951771736145,
                        -0.1837311089038849,
                        0.16007086634635925,
                        0.15628986060619354,
                        -0.033043310046195984,
                        -0.08980244398117065,
                        -0.021026207134127617,
                        0.07322515547275543,
                        0.035245947539806366,
                        -0.07914257049560547,
                        0.25762298703193665,
                        0.10532210022211075,
                        0.06258196383714676,
                        0.33028900623321533,
                        0.020788000896573067,
                        0.11374848335981369,
                        -0.1641819328069687,
                        0.19712874293327332
                    ]
                ],
                [
                    [
                        -0.08275307714939117,
                        -0.008831631392240524,
                        0.0757145881652832,
                        -0.045670557767152786,
                        -0.23014871776103973,
                        0.09629268944263458,
                        0.009211220778524876,
                        -1.0151325464248657,
                        -0.309602826833725,
                        -0.07444111257791519,
                        -0.19392108917236328,
                        0.036010053008794785,
                        -0.26618629693984985,
                        -0.31037265062332153,
                        0.046536024659872055,
                        -0.02254486456513405,
                        0.061260953545570374,
                        0.001715517253614962,
                        0.029138527810573578,
                        -0.1975281834602356,
                        0.12119162082672119,
                        0.06279762834310532,
                        -0.07142643630504608,
                        0.01868659071624279,
                        0.006837256718426943,
                        0.061598099768161774,
                        -0.020279305055737495,
                        0.13789628446102142,
                        0.20299780368804932,
                        -0.12607619166374207,
                        -0.062110498547554016,
                        -0.08141791820526123,
                        0.03954487666487694,
                        0.07947663962841034,
                        0.07089514285326004,
                        0.07196520268917084,
                        -0.07770251482725143,
                        -0.016977744176983833,
                        -0.2385552078485489,
                        -0.28217723965644836,
                        -0.13760516047477722,
                        0.04372098296880722,
                        -0.01621183194220066,
                        -0.2620275914669037,
                        0.12811678647994995,
                        -0.16952703893184662,
                        -0.6691634058952332,
                        0.030108293518424034,
                        -0.17108666896820068,
                        0.0012578301830217242,
                        0.010888098739087582,
                        0.09212061017751694,
                        -0.01645011641085148,
                        -0.10952853411436081,
                        0.14131078124046326,
                        0.07758233696222305,
                        -0.23155264556407928,
                        0.047827184200286865,
                        -0.007047784980386496,
                        -0.3583903908729553,
                        -0.07534898072481155,
                        -0.010115887969732285,
                        0.12478585541248322,
                        -0.13260404765605927,
                        -0.014936409890651703,
                        -0.02941056154668331,
                        -0.028663717210292816,
                        0.0822041928768158,
                        0.08839307725429535,
                        0.11234752833843231,
                        0.08708570897579193,
                        0.3143262565135956,
                        0.13169613480567932,
                        0.17183683812618256,
                        0.20613093674182892,
                        0.0525558702647686,
                        -0.10656395554542542,
                        -0.0679081529378891,
                        0.06289908289909363,
                        0.03175309672951698,
                        -0.0631587877869606,
                        0.010047945193946362,
                        -0.0693369209766388,
                        -0.07058840990066528,
                        -0.021925825625658035,
                        -0.048630740493535995,
                        -0.01174122467637062,
                        -0.13107025623321533,
                        0.032528407871723175,
                        -0.07491850107908249,
                        -0.05781013146042824,
                        0.09404849261045456,
                        0.07175302505493164,
                        -0.2192595899105072,
                        0.035589490085840225,
                        -0.02914338931441307,
                        0.13645969331264496,
                        -0.08366531133651733,
                        -0.08120925724506378,
                        -0.13942518830299377,
                        0.03591987490653992,
                        -0.07365953922271729,
                        0.17890705168247223,
                        0.07639669626951218,
                        -0.023954620584845543,
                        -0.12905605137348175,
                        -0.12591250240802765,
                        -0.04088125005364418,
                        0.0012706879060715437,
                        -0.016282403841614723,
                        -0.018505942076444626,
                        0.10929690301418304,
                        0.05250052735209465,
                        -0.03857814893126488,
                        -0.12934432923793793,
                        -0.0239057969301939,
                        -0.15277943015098572,
                        0.03932595252990723,
                        -0.13938920199871063,
                        0.11832612007856369,
                        0.07737851142883301,
                        0.038930561393499374,
                        0.02179417759180069,
                        0.31832408905029297,
                        0.2015938013792038,
                        -0.18024298548698425,
                        0.061314888298511505,
                        -0.09914088249206543,
                        0.029586169868707657,
                        0.05587615817785263,
                        0.008073708042502403,
                        -0.00016424212662968785,
                        -0.11380767077207565,
                        -0.1914166659116745,
                        0.1153126060962677,
                        -0.11151158809661865,
                        -0.08427542448043823,
                        0.07297047227621078,
                        0.05568808689713478,
                        -0.016696657985448837,
                        -0.014148333109915257,
                        0.003916843794286251,
                        0.005808705929666758,
                        -0.04829799756407738,
                        0.028512245044112206,
                        -0.07399012893438339,
                        0.09766126424074173,
                        -0.11183095723390579,
                        0.004085096530616283,
                        -0.0025848583318293095,
                        0.00035268248757347465,
                        0.038227520883083344,
                        -0.15468385815620422,
                        -0.029308577999472618,
                        -0.007475570309907198,
                        -0.10954932868480682,
                        0.21377147734165192,
                        0.012459090910851955,
                        0.06299297511577606,
                        -0.06191975250840187,
                        -0.028637638315558434,
                        0.004553511738777161,
                        0.07293374091386795,
                        0.019016869366168976,
                        0.05297880247235298,
                        -0.006648981012403965,
                        -0.07006511092185974,
                        0.059599630534648895,
                        0.0484890379011631,
                        0.17834046483039856,
                        -0.008089357987046242,
                        -0.08211402595043182,
                        0.061790794134140015,
                        -0.13521745800971985,
                        -0.09862237423658371,
                        0.005537531804293394,
                        -0.04710721597075462,
                        0.003164100693538785,
                        -0.08484607189893723,
                        -0.03704371303319931,
                        0.18256670236587524,
                        0.0342954583466053,
                        -0.03828788176178932,
                        -0.10684546828269958,
                        0.04983332008123398,
                        -0.015032827854156494,
                        -0.15186220407485962,
                        0.06776399910449982,
                        -0.04741936922073364,
                        -0.016301382333040237,
                        -0.027767667546868324,
                        0.08004005998373032,
                        -0.08288753032684326,
                        0.004954915028065443,
                        -0.11474844813346863,
                        0.06252890080213547,
                        -0.22325626015663147,
                        -0.02170673757791519,
                        0.037697333842515945,
                        -0.4854918122291565,
                        -0.18391457200050354,
                        -0.015473179519176483,
                        -0.1411072164773941,
                        0.01762467436492443,
                        0.019055252894759178,
                        -0.03030119650065899,
                        -0.00306556629948318,
                        0.008555881679058075,
                        -0.012770035304129124,
                        0.07866978645324707,
                        -0.017386125400662422,
                        -0.19867520034313202,
                        0.0338585302233696,
                        -0.012607703916728497,
                        -0.13696759939193726,
                        0.008192256093025208,
                        -0.04127100482583046,
                        -0.04964113608002663,
                        -0.04603833332657814,
                        -0.020587248727679253,
                        0.238500714302063,
                        -0.23050957918167114,
                        0.05109410360455513,
                        0.012682905420660973,
                        0.021049343049526215,
                        -0.08537915349006653,
                        0.0913214161992073,
                        0.07195741683244705,
                        -0.04323343187570572,
                        -0.049459993839263916,
                        -0.15734891593456268,
                        -0.4041142463684082,
                        -0.10832718014717102,
                        -0.15385256707668304,
                        -0.21896784007549286,
                        0.07362829148769379,
                        0.019427726045250893,
                        -0.010242165066301823,
                        -0.9202733039855957,
                        0.09031815081834793,
                        -0.1413147896528244,
                        -0.040560442954301834,
                        -0.032788608223199844,
                        0.02784593775868416,
                        0.006563279312103987,
                        -0.005227608606219292,
                        -0.07008446753025055,
                        0.10559730976819992,
                        -0.20088469982147217,
                        0.05312395095825195,
                        -0.03227299824357033,
                        -0.35354676842689514,
                        -0.15485316514968872,
                        -0.020320521667599678,
                        0.09724350273609161,
                        0.015210450626909733
                    ],
                    [
                        -0.03187037631869316,
                        -0.0815257877111435,
                        -0.04563461244106293,
                        -0.05283990129828453,
                        0.19875425100326538,
                        0.07328007370233536,
                        0.08477788418531418,
                        0.45267486572265625,
                        0.23589085042476654,
                        0.09868498146533966,
                        0.0645265132188797,
                        0.026225613430142403,
                        0.18924254179000854,
                        0.011468568816781044,
                        0.04655837640166283,
                        -0.016028564423322678,
                        0.22692523896694183,
                        0.046054497361183167,
                        -0.08103463053703308,
                        0.17600463330745697,
                        0.008263779804110527,
                        -0.1615576446056366,
                        -0.04857635125517845,
                        -0.018565773963928223,
                        -0.025090809911489487,
                        0.10237276554107666,
                        0.04742716997861862,
                        -0.08882124722003937,
                        -0.07747399806976318,
                        -0.057508353143930435,
                        0.05015086382627487,
                        -0.036232978105545044,
                        0.07056504487991333,
                        0.03461185470223427,
                        -0.05134457349777222,
                        0.02986144833266735,
                        0.11425795406103134,
                        0.010620946064591408,
                        0.028719350695610046,
                        0.04797743260860443,
                        0.08923868089914322,
                        -0.13828416168689728,
                        0.10842442512512207,
                        0.47900423407554626,
                        0.08890368044376373,
                        0.13300468027591705,
                        0.262494295835495,
                        0.004335954785346985,
                        0.08428455144166946,
                        0.0071860142052173615,
                        0.06966771930456161,
                        0.03365500643849373,
                        0.09431518614292145,
                        -0.06866884231567383,
                        0.033453408628702164,
                        0.006737797055393457,
                        0.21182632446289062,
                        0.01850024424493313,
                        0.12472490221261978,
                        0.1854923814535141,
                        0.12404429167509079,
                        0.04338463395833969,
                        0.06819819658994675,
                        -0.0716961920261383,
                        -0.007239684462547302,
                        0.06607843190431595,
                        -0.17291997373104095,
                        -0.11747301369905472,
                        -0.2758231461048126,
                        0.07873991131782532,
                        0.021756164729595184,
                        -0.09256482124328613,
                        0.20027370750904083,
                        -0.01778649352490902,
                        -0.05747821182012558,
                        0.0012423417065292597,
                        -0.11160368472337723,
                        0.007021908648312092,
                        -0.07842933386564255,
                        0.061068493872880936,
                        0.13121820986270905,
                        0.04973771795630455,
                        -0.15876996517181396,
                        0.09017957746982574,
                        0.05762793868780136,
                        0.05657777935266495,
                        0.07192902266979218,
                        0.0929814875125885,
                        -0.03939817473292351,
                        -0.02404993586242199,
                        0.03886108845472336,
                        -0.036581363528966904,
                        0.05961194261908531,
                        0.036717936396598816,
                        -0.09506072849035263,
                        0.017523130401968956,
                        0.00677619269117713,
                        0.06441694498062134,
                        0.007073177956044674,
                        0.08114460110664368,
                        -0.068855881690979,
                        0.14383938908576965,
                        0.003974899183958769,
                        -0.10454616695642471,
                        -0.08759050816297531,
                        -0.049722906202077866,
                        0.05615117773413658,
                        0.1532820165157318,
                        -0.022495824843645096,
                        0.15903176367282867,
                        -0.028439735993742943,
                        -0.014417288824915886,
                        0.03823012486100197,
                        0.027297118678689003,
                        0.02941174805164337,
                        0.23434533178806305,
                        0.10724413394927979,
                        0.08531664311885834,
                        0.1286502480506897,
                        0.006093465723097324,
                        0.0726030021905899,
                        0.16714169085025787,
                        -0.006448735482990742,
                        -0.16639716923236847,
                        -0.023244040086865425,
                        0.0012923446483910084,
                        -0.20486058294773102,
                        -0.0655512660741806,
                        0.013549890369176865,
                        -0.12867839634418488,
                        0.0024436803068965673,
                        0.011706706136465073,
                        0.12271177768707275,
                        0.014335648156702518,
                        0.09757763892412186,
                        0.040313828736543655,
                        0.04295073449611664,
                        -0.005327355582267046,
                        -0.2800666093826294,
                        -0.009970133192837238,
                        0.09421543776988983,
                        -0.02212715335190296,
                        -0.011901168152689934,
                        0.04494698345661163,
                        0.021588677540421486,
                        0.09237007796764374,
                        -0.1249757632613182,
                        -0.15263237059116364,
                        0.014525124803185463,
                        0.1089257076382637,
                        -0.009319541975855827,
                        0.10674712061882019,
                        -0.014082369394600391,
                        -0.01588502712547779,
                        0.06263385713100433,
                        0.05134172737598419,
                        -0.07452079653739929,
                        -0.05413360893726349,
                        -0.015446449629962444,
                        -0.05296188220381737,
                        0.041044268757104874,
                        0.013851040042936802,
                        -0.05555245280265808,
                        0.07651825994253159,
                        0.05986639857292175,
                        0.024097977206110954,
                        0.039156921207904816,
                        0.10137951374053955,
                        -0.12975208461284637,
                        0.030964095145463943,
                        0.025905819609761238,
                        0.10885611176490784,
                        0.1110248863697052,
                        -0.012370754964649677,
                        -0.04103284329175949,
                        -0.07352487742900848,
                        -0.1582479625940323,
                        -0.015623542480170727,
                        0.028845222666859627,
                        0.09410625696182251,
                        -0.07525288313627243,
                        -0.04810516536235809,
                        -0.029001794755458832,
                        -0.033124055713415146,
                        -0.08999688923358917,
                        -0.05011683329939842,
                        0.05129997432231903,
                        -0.043357327580451965,
                        0.039703257381916046,
                        0.0480087585747242,
                        0.09690001606941223,
                        -0.002033083699643612,
                        0.00021399016259238124,
                        -0.010433409363031387,
                        -0.10122782737016678,
                        -0.03853641077876091,
                        -0.09685606509447098,
                        0.0435183160007,
                        0.09597337245941162,
                        0.5140230655670166,
                        0.118474081158638,
                        -0.06637834012508392,
                        0.06646492332220078,
                        0.004573158919811249,
                        0.17820872366428375,
                        0.16819821298122406,
                        0.058715760707855225,
                        0.03316111862659454,
                        0.09629322588443756,
                        0.10620830208063126,
                        0.0035430914722383022,
                        0.0779767632484436,
                        0.2255106121301651,
                        0.09785068035125732,
                        0.05053409934043884,
                        0.18377083539962769,
                        0.06711632013320923,
                        0.0727691650390625,
                        0.11058975756168365,
                        0.05712275207042694,
                        -0.3239724338054657,
                        0.3295225501060486,
                        0.06108156219124794,
                        -0.14736351370811462,
                        0.09449335932731628,
                        0.13797466456890106,
                        0.15710598230361938,
                        0.1587027907371521,
                        0.1594763994216919,
                        0.22348955273628235,
                        0.023629549890756607,
                        0.09554827958345413,
                        -0.04738779738545418,
                        0.06476505845785141,
                        -0.030667901039123535,
                        -0.029286399483680725,
                        0.13546712696552277,
                        0.21374984085559845,
                        0.5121788382530212,
                        -0.09442336857318878,
                        0.2710849642753601,
                        -0.09219987690448761,
                        0.08506602048873901,
                        0.03599324822425842,
                        -0.037833187729120255,
                        0.13444414734840393,
                        0.23101812601089478,
                        -0.04736114293336868,
                        0.052136532962322235,
                        -0.03938738629221916,
                        0.09093151986598969,
                        0.08684834837913513,
                        0.037361014634370804,
                        0.027295878157019615,
                        -0.31122925877571106,
                        -0.2026754766702652
                    ],
                    [
                        0.014541449025273323,
                        0.14631427824497223,
                        0.03267885744571686,
                        -0.10693925619125366,
                        0.021250510588288307,
                        0.1330869048833847,
                        0.24988944828510284,
                        0.5721511244773865,
                        -0.11612389981746674,
                        -0.16568531095981598,
                        0.13234755396842957,
                        0.3597358763217926,
                        -0.7644064426422119,
                        -0.0034431936219334602,
                        0.18416807055473328,
                        0.024397632107138634,
                        0.09854137897491455,
                        0.07393985241651535,
                        0.023586342111229897,
                        -0.1076371893286705,
                        0.15611037611961365,
                        0.08921348303556442,
                        0.09765394777059555,
                        0.1833181083202362,
                        0.02815188840031624,
                        0.011132745072245598,
                        0.015400853008031845,
                        0.03563641384243965,
                        -0.23496678471565247,
                        -0.1971687227487564,
                        -0.14115051925182343,
                        0.08584920316934586,
                        0.12594278156757355,
                        -0.014509574510157108,
                        0.03954653441905975,
                        0.17478202283382416,
                        -0.08583154529333115,
                        0.09563861787319183,
                        0.10487483441829681,
                        -0.24014483392238617,
                        0.14674361050128937,
                        -0.0429576151072979,
                        0.11886613070964813,
                        0.22628459334373474,
                        0.07186873257160187,
                        -0.046383216977119446,
                        -0.15715853869915009,
                        0.04050987958908081,
                        0.03782447427511215,
                        0.006334780715405941,
                        0.10008624196052551,
                        0.11227315664291382,
                        0.0877910628914833,
                        0.06626168638467789,
                        0.0714854821562767,
                        0.021660003811120987,
                        0.033311910927295685,
                        0.1781238168478012,
                        0.11126615107059479,
                        -0.8389467597007751,
                        -0.09073048084974289,
                        0.029566047713160515,
                        -0.16634270548820496,
                        0.07895931601524353,
                        0.012105932459235191,
                        0.03510835021734238,
                        0.12641797959804535,
                        0.0966840535402298,
                        0.23837052285671234,
                        -0.009215456433594227,
                        0.158497154712677,
                        0.5171121954917908,
                        0.08016896992921829,
                        0.17346128821372986,
                        0.22660869359970093,
                        0.2243756353855133,
                        -0.5295910835266113,
                        0.23096027970314026,
                        0.10625072568655014,
                        -0.04451282322406769,
                        0.10047599673271179,
                        0.17520329356193542,
                        -0.06798055022954941,
                        -0.06548770517110825,
                        -0.10927385836839676,
                        -0.1334507316350937,
                        0.034069277346134186,
                        -0.10624929517507553,
                        -0.06276003271341324,
                        0.10994847863912582,
                        0.007056880742311478,
                        0.1665363311767578,
                        0.061947740614414215,
                        -0.006654823198914528,
                        0.01510661467909813,
                        0.0566568523645401,
                        -0.034478649497032166,
                        0.14775028824806213,
                        0.18140071630477905,
                        0.05930212885141373,
                        0.03320597484707832,
                        -0.15065975487232208,
                        0.23545274138450623,
                        0.004247854929417372,
                        -0.10624956339597702,
                        0.05062005668878555,
                        0.09434410184621811,
                        0.21336397528648376,
                        0.034951962530612946,
                        0.17820210754871368,
                        -0.08459565043449402,
                        -0.11380411684513092,
                        0.11875387281179428,
                        0.10595811903476715,
                        0.08563395589590073,
                        -0.02195616066455841,
                        -0.04642422869801521,
                        0.1428840458393097,
                        0.011833017691969872,
                        0.031155040487647057,
                        0.0008770124986767769,
                        0.19343027472496033,
                        0.23191611468791962,
                        0.3328809440135956,
                        0.3586686849594116,
                        0.08129030466079712,
                        -0.19176773726940155,
                        0.09709784388542175,
                        -0.17980997264385223,
                        -0.020886139944195747,
                        -0.011409888975322247,
                        -0.046735331416130066,
                        0.11802376806735992,
                        -0.009616508148610592,
                        -0.034164123237133026,
                        0.14272448420524597,
                        -0.015651246532797813,
                        0.044553935527801514,
                        0.0006670955335721374,
                        0.03977164626121521,
                        0.023011811077594757,
                        0.017169645056128502,
                        -0.04133903607726097,
                        -0.00926405843347311,
                        0.0002987605694215745,
                        -0.02210647612810135,
                        0.05591274052858353,
                        0.1009596511721611,
                        0.11702322959899902,
                        0.1612236350774765,
                        -0.09262660890817642,
                        0.07109734416007996,
                        0.008256558328866959,
                        0.022256048396229744,
                        -0.07307702302932739,
                        -0.05109186843037605,
                        -0.01543782465159893,
                        -0.06268134713172913,
                        -0.02258760668337345,
                        -0.15742091834545135,
                        0.126094251871109,
                        -0.03622766584157944,
                        -0.01631990447640419,
                        0.009839661419391632,
                        -0.15517227351665497,
                        0.08995847404003143,
                        0.0058306423015892506,
                        0.03723546862602234,
                        -0.10779318958520889,
                        0.016929777339100838,
                        -0.0015712522435933352,
                        -0.012679586187005043,
                        0.013122064992785454,
                        0.10266069322824478,
                        0.32704034447669983,
                        -0.057308174669742584,
                        -0.027362864464521408,
                        -0.12494881451129913,
                        -0.004635020159184933,
                        -0.058350108563899994,
                        -0.027507731691002846,
                        0.09755486249923706,
                        0.050927598029375076,
                        -0.08143720775842667,
                        -0.11444636434316635,
                        -0.13090091943740845,
                        -0.006509349215775728,
                        0.28288090229034424,
                        0.03939766436815262,
                        -0.039203058928251266,
                        0.07548510283231735,
                        0.08018239587545395,
                        0.17244920134544373,
                        0.08232663571834564,
                        0.4136686623096466,
                        0.015781044960021973,
                        0.2941848039627075,
                        0.04017438739538193,
                        0.3688681125640869,
                        0.2718059718608856,
                        -0.28636467456817627,
                        -0.1050056591629982,
                        0.09975094348192215,
                        0.2918856143951416,
                        -0.35531920194625854,
                        0.18507252633571625,
                        0.03491479903459549,
                        -0.10958150029182434,
                        0.1322597712278366,
                        0.0448150597512722,
                        0.049835771322250366,
                        0.15440288186073303,
                        0.1705959588289261,
                        0.02083534002304077,
                        0.00894003827124834,
                        0.01563437655568123,
                        0.15462671220302582,
                        0.050404734909534454,
                        -0.025997981429100037,
                        0.06919873505830765,
                        0.21329712867736816,
                        0.1879773736000061,
                        0.019098572432994843,
                        0.09743234515190125,
                        0.005329357460141182,
                        0.19497796893119812,
                        0.12898606061935425,
                        0.04457474127411842,
                        -0.3130367398262024,
                        0.139438658952713,
                        0.05966927111148834,
                        -0.021315649151802063,
                        0.3181445896625519,
                        -0.029706574976444244,
                        0.08400573581457138,
                        0.12449564784765244,
                        0.21306253969669342,
                        -0.020770031958818436,
                        0.005539359524846077,
                        0.09541874378919601,
                        0.30974406003952026,
                        0.129054993391037,
                        0.15913349390029907,
                        -0.10932718217372894,
                        0.10606648772954941,
                        0.009730858728289604,
                        0.17104698717594147,
                        0.06875373423099518,
                        0.10997840017080307,
                        0.14296294748783112,
                        0.247469961643219,
                        -0.5955378413200378,
                        0.07485310733318329,
                        0.14931657910346985,
                        0.0862443745136261,
                        0.06461404263973236
                    ],
                    [
                        0.026500554755330086,
                        0.04353693872690201,
                        -0.08720830082893372,
                        0.07303503155708313,
                        0.2566167116165161,
                        -0.17906320095062256,
                        -0.048512570559978485,
                        0.7591186761856079,
                        0.14365412294864655,
                        0.3595542311668396,
                        0.13513582944869995,
                        -0.0700671598315239,
                        0.17786221206188202,
                        0.025465715676546097,
                        -0.024203142151236534,
                        -0.04404788836836815,
                        -0.1948571652173996,
                        0.029028795659542084,
                        0.0922645553946495,
                        0.15817582607269287,
                        -0.005690720397979021,
                        -0.0032526932191103697,
                        -0.04656682163476944,
                        -0.03538620099425316,
                        0.10378585755825043,
                        -0.05121864750981331,
                        -0.03936167433857918,
                        -0.07970107346773148,
                        0.3712572455406189,
                        0.21461829543113708,
                        0.08891266584396362,
                        -0.11290212720632553,
                        -0.16093070805072784,
                        0.019558794796466827,
                        -0.14577072858810425,
                        -0.03042924962937832,
                        0.17089314758777618,
                        -0.1442430317401886,
                        0.24550336599349976,
                        0.2730860710144043,
                        0.057871636003255844,
                        -0.017054453492164612,
                        0.005973958410322666,
                        0.23582187294960022,
                        -0.0759269967675209,
                        -0.008436406031250954,
                        0.6573517322540283,
                        -0.007206211797893047,
                        0.3479452133178711,
                        -0.09946554154157639,
                        -0.12930327653884888,
                        -0.09726899117231369,
                        -0.15444554388523102,
                        0.054511718451976776,
                        0.03519034385681152,
                        -0.032134462147951126,
                        0.40133216977119446,
                        0.06404624879360199,
                        0.10629837214946747,
                        0.38766586780548096,
                        -0.13910754024982452,
                        0.10298048704862595,
                        -0.10754917562007904,
                        -0.013554091565310955,
                        0.01398676261305809,
                        -0.005202483385801315,
                        -0.029072679579257965,
                        -0.008243190124630928,
                        -0.11501968652009964,
                        -0.07713668048381805,
                        -0.0875820741057396,
                        -0.5489804744720459,
                        -0.01671959087252617,
                        0.28172680735588074,
                        -0.08417107909917831,
                        0.05435221269726753,
                        -0.17631976306438446,
                        0.10590149462223053,
                        -0.09454747289419174,
                        0.003529555397108197,
                        0.0017589668277651072,
                        -0.06751131266355515,
                        0.006324996706098318,
                        -0.04419492185115814,
                        0.05701356753706932,
                        -0.039414066821336746,
                        0.01336453203111887,
                        0.10824030637741089,
                        0.03792811930179596,
                        0.08141814917325974,
                        0.02477072924375534,
                        0.0615672804415226,
                        0.2328861951828003,
                        0.02232508920133114,
                        -0.020382871851325035,
                        -0.13255822658538818,
                        0.051582325249910355,
                        -0.034354425966739655,
                        -0.061902306973934174,
                        0.09994225203990936,
                        -0.09750457108020782,
                        0.05414065346121788,
                        -0.0007999646477401257,
                        -0.19978083670139313,
                        -0.08708824962377548,
                        0.0315813310444355,
                        -0.02764786407351494,
                        -0.11552822589874268,
                        -0.12406909465789795,
                        -0.1288709193468094,
                        -0.1549985408782959,
                        -0.01070106215775013,
                        0.20680001378059387,
                        -0.05010875314474106,
                        -0.00732610234990716,
                        -0.018804118037223816,
                        0.09080354869365692,
                        -0.0019634831696748734,
                        -0.01743084378540516,
                        -0.1266898363828659,
                        0.1793442666530609,
                        -0.0047654579393565655,
                        0.02700096368789673,
                        0.026683127507567406,
                        -0.24419622123241425,
                        0.09846945106983185,
                        -0.21346785128116608,
                        -0.17044556140899658,
                        -0.03337519243359566,
                        -0.0019299759296700358,
                        -0.02387419529259205,
                        -0.09590545296669006,
                        0.20877230167388916,
                        0.09580522775650024,
                        -0.0832969918847084,
                        0.2626403570175171,
                        -0.013183917850255966,
                        -0.04900170490145683,
                        -0.01942041702568531,
                        -0.06795298308134079,
                        0.016432706266641617,
                        -0.013448475860059261,
                        0.07087278366088867,
                        -0.05560755357146263,
                        0.04266443848609924,
                        0.08393853157758713,
                        0.03938618674874306,
                        0.07406710833311081,
                        0.0008068326278589666,
                        0.1608707159757614,
                        -0.14107154309749603,
                        -0.014330286532640457,
                        0.09285826981067657,
                        -0.0765683501958847,
                        0.02631465718150139,
                        -0.033557288348674774,
                        -0.04857546091079712,
                        -0.14655616879463196,
                        -0.02131342515349388,
                        0.020428625866770744,
                        -0.007617703173309565,
                        0.044051241129636765,
                        0.044280268251895905,
                        0.09522926062345505,
                        0.0640166774392128,
                        -0.05776377022266388,
                        -0.09491439163684845,
                        0.12694503366947174,
                        -0.18372195959091187,
                        0.03201236203312874,
                        0.04877310246229172,
                        -0.07658898085355759,
                        0.011588172055780888,
                        0.16029906272888184,
                        0.45833808183670044,
                        -0.022891301661729813,
                        -0.11930987238883972,
                        0.031188709661364555,
                        0.07313936203718185,
                        -0.12339572608470917,
                        -0.026226723566651344,
                        0.11668792366981506,
                        -0.050476595759391785,
                        -0.03766608610749245,
                        -0.06637460738420486,
                        0.09889999032020569,
                        0.25318092107772827,
                        0.2367016077041626,
                        0.14966118335723877,
                        -0.1375793218612671,
                        0.16835181415081024,
                        0.21205733716487885,
                        -0.00316317449323833,
                        0.015125750564038754,
                        0.04694487154483795,
                        0.07171949744224548,
                        0.2712939381599426,
                        -0.07084667682647705,
                        0.05906078591942787,
                        1.4886895418167114,
                        0.11456456780433655,
                        0.06567960977554321,
                        0.02189186029136181,
                        -0.23529629409313202,
                        -0.16509442031383514,
                        -0.09465032070875168,
                        -0.008832775056362152,
                        -0.050494298338890076,
                        -0.2133212685585022,
                        -0.13843722641468048,
                        -0.023114953190088272,
                        0.23412089049816132,
                        0.0989864245057106,
                        -0.013180122710764408,
                        -0.15455277264118195,
                        0.1674126535654068,
                        0.028358006849884987,
                        0.0017963072750717402,
                        -0.014729616232216358,
                        -0.040119729936122894,
                        -0.213831827044487,
                        0.10855041444301605,
                        0.16789275407791138,
                        -0.04916056618094444,
                        0.033625952899456024,
                        0.017429420724511147,
                        0.04127640649676323,
                        -0.11114225536584854,
                        0.10378524661064148,
                        -0.020983800292015076,
                        0.24232067167758942,
                        0.2723866105079651,
                        0.16252943873405457,
                        0.05855540186166763,
                        0.02826431766152382,
                        0.12666946649551392,
                        -0.20899665355682373,
                        0.102256640791893,
                        0.26531824469566345,
                        -0.15511377155780792,
                        0.04348110035061836,
                        -0.03131359815597534,
                        -0.10481548309326172,
                        0.022574372589588165,
                        -0.1093657836318016,
                        0.015823977068066597,
                        -0.05632944405078888,
                        -0.10869108140468597,
                        0.12415625154972076,
                        -0.020982762798666954,
                        -0.05390973761677742,
                        0.5250740647315979,
                        -0.030624782666563988,
                        0.04661592096090317,
                        0.022495413199067116,
                        -0.2108232080936432
                    ],
                    [
                        0.01945371739566326,
                        0.010745815932750702,
                        0.051148779690265656,
                        -0.1621125191450119,
                        -0.3429584205150604,
                        0.1227094903588295,
                        -0.10364599525928497,
                        -1.804592251777649,
                        -0.4243999123573303,
                        -0.14885161817073822,
                        -0.06500815600156784,
                        -0.0959736555814743,
                        -0.020303040742874146,
                        0.039557814598083496,
                        0.06981553137302399,
                        0.012291385792195797,
                        0.13122689723968506,
                        -0.0020108928438276052,
                        0.10327092558145523,
                        -0.2012251764535904,
                        -0.03073895536363125,
                        0.08719458431005478,
                        -0.002447205362841487,
                        0.007475186139345169,
                        -0.047949522733688354,
                        0.042326655238866806,
                        -0.07290679216384888,
                        -0.01721072755753994,
                        -0.11860313266515732,
                        -0.20880776643753052,
                        0.0771808847784996,
                        0.08287588506937027,
                        0.03598528355360031,
                        -0.03878006339073181,
                        -0.0013666662853211164,
                        0.060169871896505356,
                        0.18115204572677612,
                        -0.07196369022130966,
                        0.24711838364601135,
                        -0.01328057236969471,
                        -0.23150447010993958,
                        0.02743379771709442,
                        0.028412336483597755,
                        -0.40112417936325073,
                        0.12882652878761292,
                        0.0905064195394516,
                        -0.46547719836235046,
                        0.017009887844324112,
                        0.06522943079471588,
                        0.11726385354995728,
                        -0.08393697440624237,
                        0.09849360585212708,
                        0.11007251590490341,
                        -0.02995818480849266,
                        -0.030701875686645508,
                        0.06452532857656479,
                        -0.541988730430603,
                        -0.12238132208585739,
                        0.01443434227257967,
                        -0.6607722640037537,
                        0.06672072410583496,
                        0.02756190113723278,
                        -0.25667351484298706,
                        -0.07726015150547028,
                        0.09412840753793716,
                        -0.14480067789554596,
                        -0.02026999741792679,
                        0.11710012704133987,
                        0.007285565137863159,
                        0.10659409314393997,
                        0.10907427221536636,
                        0.24935555458068848,
                        0.17245237529277802,
                        0.24507196247577667,
                        -0.10264906287193298,
                        0.07405556738376617,
                        0.06542765349149704,
                        0.14462845027446747,
                        0.005188565235584974,
                        -0.03490487113595009,
                        0.0692349374294281,
                        -0.12635327875614166,
                        0.021753201261162758,
                        0.05368123576045036,
                        -0.07789893448352814,
                        0.027782989665865898,
                        -0.06633368879556656,
                        -0.23043997585773468,
                        0.11852877587080002,
                        0.023010266944766045,
                        -0.0644628256559372,
                        -0.07212086021900177,
                        -0.06522645056247711,
                        0.027398420497775078,
                        0.10053388774394989,
                        -0.0011822740780189633,
                        0.14835165441036224,
                        -0.03529180586338043,
                        -0.05775459110736847,
                        -0.0598977729678154,
                        0.07138965278863907,
                        -0.07820189744234085,
                        0.32445913553237915,
                        0.2913705110549927,
                        0.14272461831569672,
                        -0.019468972459435463,
                        -0.08627662062644958,
                        -0.05236666277050972,
                        -0.0995577797293663,
                        -0.1779395490884781,
                        0.35491713881492615,
                        0.014057883061468601,
                        0.22134608030319214,
                        0.04182441905140877,
                        0.0075574638321995735,
                        -0.053043585270643234,
                        -0.11440439522266388,
                        -0.03885170444846153,
                        -0.034174345433712006,
                        -0.024971913546323776,
                        -0.014774912036955357,
                        0.09911802411079407,
                        0.02028600499033928,
                        -0.03159769997000694,
                        -0.0879017785191536,
                        -0.06619801372289658,
                        -0.002821666654199362,
                        -0.0739712193608284,
                        0.10696934163570404,
                        0.06489063799381256,
                        0.01669975556433201,
                        0.0016964980168268085,
                        0.0888974592089653,
                        0.09042572975158691,
                        -0.03502972424030304,
                        0.13126571476459503,
                        0.02517157793045044,
                        -0.20177261531352997,
                        -0.011086614802479744,
                        -0.07842891663312912,
                        -0.30349037051200867,
                        0.008187065832316875,
                        0.06359349191188812,
                        -0.026881113648414612,
                        0.01916588842868805,
                        -0.020140821114182472,
                        0.07905034720897675,
                        -0.03640308603644371,
                        0.0061706011183559895,
                        0.15905942022800446,
                        -0.0019283830188214779,
                        -0.08383534848690033,
                        -0.06077893078327179,
                        -0.029726345092058182,
                        0.006324124056845903,
                        -0.04860425740480423,
                        0.12443510442972183,
                        -0.00945271085947752,
                        0.01330555509775877,
                        0.044582072645425797,
                        0.010971811600029469,
                        0.09029584378004074,
                        -0.10075893253087997,
                        0.007944053038954735,
                        0.14494121074676514,
                        0.024138346314430237,
                        0.07644028961658478,
                        0.1593056321144104,
                        -0.018889185041189194,
                        0.11594197154045105,
                        -0.014949108473956585,
                        -0.23105782270431519,
                        0.14455798268318176,
                        -0.24345612525939941,
                        -0.19245074689388275,
                        0.09079694747924805,
                        0.09784693270921707,
                        0.034499019384384155,
                        0.08660652488470078,
                        0.017602188512682915,
                        -0.030900616198778152,
                        -0.08730704337358475,
                        -0.10380938649177551,
                        -0.05585656315088272,
                        -0.15056829154491425,
                        0.06459184736013412,
                        -0.08820550888776779,
                        0.15468795597553253,
                        -0.10438219457864761,
                        0.025873610749840736,
                        0.057301852852106094,
                        0.04082599654793739,
                        -0.02421564795076847,
                        -0.0573694072663784,
                        -0.06432625651359558,
                        -0.07179082185029984,
                        -0.1383724957704544,
                        0.11290064454078674,
                        0.002922187792137265,
                        0.1839236319065094,
                        -0.46008339524269104,
                        -0.18429338932037354,
                        0.04466140642762184,
                        -0.047408513724803925,
                        -0.14179375767707825,
                        0.2489594668149948,
                        -0.02008155733346939,
                        0.02666100487112999,
                        0.042012665420770645,
                        0.0042185126803815365,
                        -0.09822194278240204,
                        -0.1181817352771759,
                        -0.0026240258011966944,
                        -0.006053199525922537,
                        0.009110311046242714,
                        -0.033931225538253784,
                        -0.16065822541713715,
                        -0.06434369087219238,
                        -0.03304392844438553,
                        0.00639163376763463,
                        -0.1600712537765503,
                        0.0342041552066803,
                        0.05452635511755943,
                        -0.06431138515472412,
                        0.039869777858257294,
                        -0.07187200337648392,
                        -0.0021978807635605335,
                        0.0944121778011322,
                        0.1709156483411789,
                        -0.1267634779214859,
                        0.4684126079082489,
                        0.03838551789522171,
                        -0.378009170293808,
                        -0.06138993427157402,
                        -0.013545876368880272,
                        0.03206260874867439,
                        -0.03859955444931984,
                        0.27614477276802063,
                        -1.0426523685455322,
                        0.09666234254837036,
                        0.06099887564778328,
                        0.028476914390921593,
                        -0.10315702855587006,
                        0.12857207655906677,
                        0.0036452810745686293,
                        -0.20190227031707764,
                        -0.027247454971075058,
                        -0.014178548939526081,
                        -0.3722449243068695,
                        0.059178903698921204,
                        -0.04729218780994415,
                        -0.5694202780723572,
                        -0.04990923032164574,
                        0.0010814274428412318,
                        -0.2311587929725647,
                        -0.23350277543067932
                    ],
                    [
                        -0.1304931789636612,
                        -0.06561914086341858,
                        -0.024170396849513054,
                        0.037578556686639786,
                        0.18236786127090454,
                        -0.11926086992025375,
                        -0.10908917337656021,
                        -0.7421069145202637,
                        0.21328657865524292,
                        0.19126108288764954,
                        0.2814173400402069,
                        0.10210713744163513,
                        0.43332794308662415,
                        0.051755115389823914,
                        0.08523562550544739,
                        -0.010818781331181526,
                        -0.10936421155929565,
                        0.13486334681510925,
                        -0.15323738753795624,
                        0.3898015320301056,
                        -0.04087027162313461,
                        0.05938102677464485,
                        -0.17296607792377472,
                        -0.07794557511806488,
                        -0.045616358518600464,
                        -0.15117765963077545,
                        0.028081076219677925,
                        -0.029660122469067574,
                        0.32073506712913513,
                        -0.059011682868003845,
                        0.06304600834846497,
                        -0.06495007127523422,
                        -0.013894937001168728,
                        -0.03352052718400955,
                        -0.048768673092126846,
                        -0.05085672065615654,
                        0.03675071522593498,
                        0.0010166412685066462,
                        0.19462333619594574,
                        0.3075283169746399,
                        -0.3248875141143799,
                        0.04229424148797989,
                        0.07831557840108871,
                        -0.11303268373012543,
                        0.17492255568504333,
                        0.07433514297008514,
                        0.3927490711212158,
                        -0.11885693669319153,
                        0.07341108471155167,
                        0.05371711030602455,
                        0.0748400092124939,
                        -0.07182826101779938,
                        -0.06327514350414276,
                        -0.03115176223218441,
                        0.0410955511033535,
                        -0.03333789110183716,
                        0.3435826003551483,
                        -0.04535039886832237,
                        0.1521744430065155,
                        0.15781189501285553,
                        0.1735568344593048,
                        0.043500740081071854,
                        0.14750751852989197,
                        -0.1314878761768341,
                        -0.0666336789727211,
                        -0.0005569529603235424,
                        -0.21099132299423218,
                        -0.09591850638389587,
                        -0.15606465935707092,
                        -0.01938176527619362,
                        0.09428524225950241,
                        0.7364811301231384,
                        -0.02204400673508644,
                        0.14273397624492645,
                        0.02797490730881691,
                        0.11234398931264877,
                        0.11050072312355042,
                        -0.06075504422187805,
                        0.05631515756249428,
                        0.04424217343330383,
                        -0.11530919373035431,
                        0.1164839044213295,
                        -0.014059020206332207,
                        0.09127666801214218,
                        0.0860777273774147,
                        0.04055076092481613,
                        0.10123315453529358,
                        -0.035056665539741516,
                        0.10741663724184036,
                        -0.02259228006005287,
                        0.1023896336555481,
                        -0.02801229991018772,
                        0.04918712377548218,
                        0.17887113988399506,
                        -0.017032314091920853,
                        -0.004023553337901831,
                        0.00020977723761461675,
                        0.08332567662000656,
                        -0.05580977350473404,
                        0.13005903363227844,
                        -0.03004109114408493,
                        0.029406219720840454,
                        -0.10034629702568054,
                        0.19972357153892517,
                        0.10272738337516785,
                        0.06820140033960342,
                        0.11583276093006134,
                        -0.1858043521642685,
                        0.039749812334775925,
                        0.020404411479830742,
                        0.046880170702934265,
                        -0.04825679957866669,
                        0.1292964071035385,
                        0.03526813164353371,
                        0.020826416090130806,
                        0.05118487775325775,
                        0.032341960817575455,
                        0.02074291929602623,
                        0.11836206912994385,
                        -0.09870258718729019,
                        0.2638891041278839,
                        0.06739916652441025,
                        0.0012713181786239147,
                        0.03465862572193146,
                        0.026858340948820114,
                        -0.01805569976568222,
                        0.15977351367473602,
                        0.025025203824043274,
                        0.08146965503692627,
                        -0.01669195480644703,
                        -0.005392866209149361,
                        -0.04729931801557541,
                        -0.04949331656098366,
                        -0.033948663622140884,
                        0.02094271592795849,
                        -0.03382961452007294,
                        -0.0024261714424937963,
                        -0.08531078696250916,
                        0.06789221614599228,
                        0.12053658813238144,
                        -0.06671023368835449,
                        -0.13293863832950592,
                        -0.06421643495559692,
                        0.01095371413975954,
                        0.05908584222197533,
                        0.028065554797649384,
                        0.09053773432970047,
                        -0.04651246592402458,
                        -0.05296297371387482,
                        0.13187412917613983,
                        0.015446736477315426,
                        -0.12633179128170013,
                        0.030114738270640373,
                        -0.15904785692691803,
                        0.08318251371383667,
                        -0.04571884125471115,
                        0.19936472177505493,
                        0.11646027863025665,
                        0.049586277455091476,
                        -0.043939121067523956,
                        0.11436649411916733,
                        0.06833603978157043,
                        0.06940051168203354,
                        0.04078727215528488,
                        0.06415209174156189,
                        -0.18038275837898254,
                        -0.05303848162293434,
                        -0.06257148087024689,
                        0.02497316151857376,
                        0.022153424099087715,
                        -0.00965540949255228,
                        -0.15371274948120117,
                        0.0766560509800911,
                        -0.05336608737707138,
                        -0.1572541743516922,
                        0.05629603564739227,
                        0.1347053050994873,
                        0.001365111325867474,
                        -0.15146243572235107,
                        0.06691624969244003,
                        -0.09066300094127655,
                        -0.045215826481580734,
                        0.06055530160665512,
                        0.054803021252155304,
                        -0.1570509672164917,
                        0.10693304985761642,
                        0.015730470418930054,
                        -0.0036460196133702993,
                        -0.0639418214559555,
                        -0.08609296381473541,
                        -0.12496308237314224,
                        -0.09302926808595657,
                        -0.05793102830648422,
                        0.1347375214099884,
                        -0.2389073669910431,
                        0.05925961956381798,
                        0.2557145059108734,
                        -0.05529029667377472,
                        -0.05232229828834534,
                        0.12469463050365448,
                        0.116277314722538,
                        0.019393598660826683,
                        0.020241722464561462,
                        0.01922658085823059,
                        -0.08067198097705841,
                        0.09479983896017075,
                        0.016373418271541595,
                        0.03589945659041405,
                        -0.1538192331790924,
                        0.05841413140296936,
                        0.019710123538970947,
                        0.15610694885253906,
                        0.09111571311950684,
                        -0.013558153994381428,
                        -0.07648823410272598,
                        0.08542735129594803,
                        -0.06454373896121979,
                        -0.08133383095264435,
                        0.039448581635951996,
                        0.17617934942245483,
                        -0.05889979004859924,
                        0.03137767314910889,
                        -0.05124058574438095,
                        -0.10157046467065811,
                        0.05936489999294281,
                        -0.04234454035758972,
                        0.02017693966627121,
                        0.0274189505726099,
                        0.09696848690509796,
                        0.12879779934883118,
                        0.3504880964756012,
                        0.008714547380805016,
                        -0.005331633612513542,
                        -0.016587942838668823,
                        -0.015103292651474476,
                        -0.14257210493087769,
                        0.11964251101016998,
                        0.11138158291578293,
                        -0.08432894945144653,
                        -0.03482051566243172,
                        -0.09615030884742737,
                        0.07080436497926712,
                        0.017861293628811836,
                        0.0855260118842125,
                        0.08837222307920456,
                        0.0023408662527799606,
                        0.09951860457658768,
                        -0.01461005862802267,
                        0.024886291474103928,
                        0.05095069482922554,
                        -0.005182558670639992,
                        0.27790963649749756,
                        0.043152470141649246,
                        -0.14008153975009918,
                        -0.2195492386817932,
                        -0.18757307529449463
                    ],
                    [
                        -0.02658194862306118,
                        0.011171308346092701,
                        0.17062824964523315,
                        -0.10175815224647522,
                        0.012645035050809383,
                        0.13804851472377777,
                        0.025736983865499496,
                        -0.8258363008499146,
                        -0.22565804421901703,
                        -0.03922472521662712,
                        -0.04527253657579422,
                        0.013575322926044464,
                        -0.21657250821590424,
                        0.007884180173277855,
                        -0.02450692467391491,
                        -0.026194047182798386,
                        0.0807715579867363,
                        0.04053249582648277,
                        0.023403506726026535,
                        -0.2634241282939911,
                        0.020807305350899696,
                        -0.13746587932109833,
                        0.0008454411872662604,
                        -0.2463550716638565,
                        0.11759857833385468,
                        -0.0008222425822168589,
                        -0.008271846920251846,
                        0.017983239144086838,
                        -0.21665522456169128,
                        -0.22172316908836365,
                        -0.12327445298433304,
                        0.054704148322343826,
                        -0.09633530676364899,
                        0.06419991701841354,
                        -0.039462603628635406,
                        -0.004410532768815756,
                        -0.07910194993019104,
                        -0.08132565021514893,
                        -0.29263100028038025,
                        -0.20316481590270996,
                        0.14836227893829346,
                        -0.021799782291054726,
                        0.0025657902006059885,
                        -0.49237409234046936,
                        -0.1938185691833496,
                        -0.2561193108558655,
                        -0.5815992951393127,
                        0.07962030172348022,
                        -0.13012191653251648,
                        0.039407871663570404,
                        -0.061561305075883865,
                        -0.007884043268859386,
                        0.046597689390182495,
                        0.04762572422623634,
                        -0.03389360010623932,
                        0.019116848707199097,
                        -0.3344564139842987,
                        -0.050694264471530914,
                        0.04002672806382179,
                        -0.2756432890892029,
                        0.09455737471580505,
                        0.0722927451133728,
                        0.00726476451382041,
                        0.02964584343135357,
                        0.06684782356023788,
                        0.02238139510154724,
                        -0.03754440322518349,
                        0.0073015871457755566,
                        0.33340781927108765,
                        0.0773390680551529,
                        -0.006282082758843899,
                        0.376869261264801,
                        -0.06216684728860855,
                        0.09589790552854538,
                        0.11151719838380814,
                        0.028137583285570145,
                        -0.01505773700773716,
                        -0.1579635888338089,
                        -0.02473187819123268,
                        -0.04469667375087738,
                        0.199375182390213,
                        -0.08492601662874222,
                        -0.07933048158884048,
                        0.03151850402355194,
                        0.08789129555225372,
                        -0.09589481353759766,
                        0.04021761938929558,
                        -0.19449730217456818,
                        0.1291246861219406,
                        -0.22019261121749878,
                        0.04423709213733673,
                        0.05080867558717728,
                        0.042413000017404556,
                        0.032733820378780365,
                        0.14153704047203064,
                        -0.03368686884641647,
                        -0.06063560023903847,
                        -0.030944164842367172,
                        0.006024566013365984,
                        -0.07058682292699814,
                        0.0010780596639961004,
                        -0.15008006989955902,
                        -0.2066757082939148,
                        0.06986759603023529,
                        0.11492353677749634,
                        -0.1182563379406929,
                        0.03467739000916481,
                        0.297844260931015,
                        -0.15993653237819672,
                        -0.03745103254914284,
                        0.17398828268051147,
                        -0.01879761554300785,
                        0.10819816589355469,
                        0.04250847548246384,
                        -0.08433115482330322,
                        0.05156197026371956,
                        -0.06213479861617088,
                        0.04643678292632103,
                        0.0774446427822113,
                        0.06070944294333458,
                        -0.13638576865196228,
                        -0.022576719522476196,
                        -0.06966471672058105,
                        0.19121792912483215,
                        -0.03094921074807644,
                        0.02406826987862587,
                        0.14795097708702087,
                        -0.04527293145656586,
                        -0.13708028197288513,
                        0.11183077096939087,
                        0.017184000462293625,
