{
    "in_shape": [
        500,
        null,
        2
    ],
    "layers": [
        {
            "type": "lstm",
            "activation": "tanh",
            "shape": [
                500,
                null,
                64
            ],
            "weights": [
                [
                    [
                        -0.6337487101554871,
                        0.11640767008066177,
                        -0.035479605197906494,
                        -0.33062270283699036,
                        0.21226751804351807,
                        0.2124888002872467,
                        -0.2215273678302765,
                        0.3169073462486267,
                        0.4528769850730896,
                        0.15536008775234222,
                        -0.0018031577346846461,
                        -0.014382786117494106,
                        0.4342801570892334,
                        -0.07269350439310074,
                        -0.14671002328395844,
                        0.1462544947862625,
                        -0.19028440117835999,
                        -0.10230672359466553,
                        0.12173323333263397,
                        -0.04802558571100235,
                        -0.1927841603755951,
                        -0.07180757820606232,
                        -0.8697373867034912,
                        0.21234342455863953,
                        -0.05388658493757248,
                        -0.19877967238426208,
                        0.6409296989440918,
                        0.13139893114566803,
                        0.17533284425735474,
                        -0.21026602387428284,
                        -0.19722910225391388,
                        -0.6132142543792725,
                        -0.019986186176538467,
                        0.04544364660978317,
                        0.3799934685230255,
                        0.05104960501194,
                        -0.44372794032096863,
                        0.5594061613082886,
                        -0.07347352057695389,
                        0.7979919910430908,
                        -0.11077818274497986,
                        -0.014355341903865337,
                        0.0539582222700119,
                        0.06210235506296158,
                        0.02616884745657444,
                        0.0006440909346565604,
                        -1.024957537651062,
                        -0.3550700843334198,
                        -0.44499239325523376,
                        -0.07737523317337036,
                        -0.664838969707489,
                        0.26169973611831665,
                        -0.1779942512512207,
                        0.11689242720603943,
                        0.18243508040905,
                        -0.17022180557250977,
                        0.10298218578100204,
                        -0.41397422552108765,
                        0.2677594721317291,
                        -0.09523588418960571,
                        -0.6682571172714233,
                        0.14756084978580475,
                        -0.12258913367986679,
                        -0.11940411478281021,
                        -0.46483558416366577,
                        0.3486063480377197,
                        -0.1403018981218338,
                        -0.8459650874137878,
                        -0.04553595185279846,
                        0.004073780030012131,
                        -0.09889132529497147,
                        0.3286130428314209,
                        0.5058352947235107,
                        0.6881776452064514,
                        -0.06874910742044449,
                        0.13266251981258392,
                        0.032185956835746765,
                        0.02405680902302265,
                        -0.45292580127716064,
                        0.05366254970431328,
                        -0.2600557506084442,
                        0.34065431356430054,
                        -0.04936855286359787,
                        -0.24468407034873962,
                        -0.29489853978157043,
                        0.11814522743225098,
                        -0.7183690071105957,
                        0.211839497089386,
                        -0.3275372087955475,
                        0.08202137053012848,
                        0.8656332492828369,
                        0.2778538465499878,
                        0.228585883975029,
                        -0.37581339478492737,
                        -0.22630347311496735,
                        -0.9725468754768372,
                        -0.040969088673591614,
                        -0.13117022812366486,
                        0.7831127643585205,
                        1.1159160137176514,
                        -0.5187231302261353,
                        2.530900239944458,
                        -0.15182702243328094,
                        0.3743148148059845,
                        -0.14412817358970642,
                        0.23871922492980957,
                        0.34232988953590393,
                        0.0657418891787529,
                        -0.02068791165947914,
                        0.44977855682373047,
                        -0.9118217825889587,
                        -0.33470597863197327,
                        -1.3316473960876465,
                        -0.013393626548349857,
                        -0.72199946641922,
                        0.385782390832901,
                        -0.14495399594306946,
                        -0.10216674208641052,
                        0.37375789880752563,
                        -0.13234397768974304,
                        0.13770975172519684,
                        -0.6633279919624329,
                        0.3299788236618042,
                        -0.05928284674882889,
                        -0.4242503345012665,
                        0.47251197695732117,
                        0.18795442581176758,
                        -0.30531153082847595,
                        -0.3734873831272125,
                        0.0036050775088369846,
                        0.04675128683447838,
                        0.23531125485897064,
                        -0.07120542228221893,
                        0.07358375936746597,
                        0.3409023880958557,
                        0.1932917833328247,
                        0.21387933194637299,
                        -3.9883017539978027,
                        0.2096492350101471,
                        0.22991161048412323,
                        0.28439584374427795,
                        -0.2672877311706543,
                        0.738466203212738,
                        -0.4426366686820984,
                        0.3071064352989197,
                        -0.1434449404478073,
                        0.10652651637792587,
                        0.3067971467971802,
                        0.5489774942398071,
                        -0.09748943150043488,
                        0.0233777929097414,
                        -0.1570279896259308,
                        0.03496680036187172,
                        0.042591530829668045,
                        0.25533872842788696,
                        0.08978911489248276,
                        0.07879934459924698,
                        0.7925786375999451,
                        0.030022332444787025,
                        -0.26699814200401306,
                        -0.05000598728656769,
                        -0.08658355474472046,
                        0.9323899745941162,
                        5.2317023277282715,
                        2.0772032737731934,
                        -1.2556161880493164,
                        -0.16239386796951294,
                        -0.21463875472545624,
                        0.15100149810314178,
                        -0.045895904302597046,
                        0.4097993075847626,
                        -0.6854811906814575,
                        0.07667000591754913,
                        -0.0760510116815567,
                        0.24890227615833282,
                        -0.35084137320518494,
                        -1.376846432685852,
                        -0.6454096436500549,
                        -0.16079649329185486,
                        -0.35971835255622864,
                        -0.16707639396190643,
                        0.05195700377225876,
                        -0.4071395993232727,
                        0.11757449060678482,
                        -0.15051580965518951,
                        -0.03329508751630783,
                        0.14499810338020325,
                        0.12445132434368134,
                        -0.09201034903526306,
                        -0.24102842807769775,
                        4.188480377197266,
                        0.026382887735962868,
                        -1.4378186464309692,
                        0.16578231751918793,
                        0.04450434073805809,
                        -0.23598720133304596,
                        0.2171689122915268,
                        0.622825562953949,
                        -0.21490547060966492,
                        0.18985684216022491,
                        0.8392239809036255,
                        -1.411551833152771,
                        -0.14946644008159637,
                        -0.08302085101604462,
                        1.2022672891616821,
                        -0.27534162998199463,
                        -1.1050118207931519,
                        0.28614410758018494,
                        -0.15408073365688324,
                        0.7432612776756287,
                        -0.4306109547615051,
                        -0.4930550456047058,
                        -0.626213788986206,
                        0.13630975782871246,
                        -2.252370595932007,
                        0.4470070004463196,
                        -0.4396837055683136,
                        -0.6025363802909851,
                        1.275578498840332,
                        -0.33882659673690796,
                        0.462843120098114,
                        -0.9783594012260437,
                        -0.2205253541469574,
                        -1.207316517829895,
                        -0.05007397010922432,
                        0.35989683866500854,
                        0.24747207760810852,
                        0.4630188047885895,
                        -4.143284320831299,
                        0.9221929311752319,
                        0.04875924810767174,
                        1.2357062101364136,
                        -0.19572503864765167,
                        0.2571057975292206,
                        0.5840769410133362,
                        0.04546331614255905,
                        0.08821631968021393,
                        0.2768658995628357,
                        -1.1006706953048706,
                        -0.8854466676712036,
                        -0.9199877381324768,
                        0.0027352208271622658,
                        -1.504709005355835,
                        0.20221824944019318,
                        -0.4898488521575928,
                        -0.19915536046028137,
                        0.24951554834842682,
                        -0.15269483625888824,
                        0.1468806117773056,
                        -0.61356520652771,
                        0.45386916399002075,
                        -0.017082111909985542,
                        -1.3531479835510254,
                        0.6841482520103455,
                        0.17904603481292725,
                        -0.2434665411710739
                    ],
                    [
                        -0.04772866517305374,
                        0.10435440391302109,
                        -0.006912494543939829,
                        0.11949554830789566,
                        0.13285331428050995,
                        0.060450173914432526,
                        -0.10718723386526108,
                        0.12566539645195007,
                        -0.11146048456430435,
                        0.2381901890039444,
                        -0.04698057845234871,
                        -0.10095620155334473,
                        0.12081453204154968,
                        0.066468745470047,
                        -0.03608999773859978,
                        -0.020802194252610207,
                        0.21851187944412231,
                        -0.04994654282927513,
                        -0.0813264548778534,
                        -0.05107966065406799,
                        0.03658376634120941,
                        -0.12838737666606903,
                        -0.02146928943693638,
                        -0.11855041980743408,
                        0.23946548998355865,
                        -0.02386832982301712,
                        0.14997200667858124,
                        0.005565746687352657,
                        -0.10589905828237534,
                        0.15732818841934204,
                        0.05778222158551216,
                        -0.05839293450117111,
                        -0.176542729139328,
                        0.11052475869655609,
                        0.2209787219762802,
                        0.2230408489704132,
                        -0.10431425273418427,
                        0.16094093024730682,
                        -0.047630030661821365,
                        -0.06596280634403229,
                        -0.18351316452026367,
                        0.03517936170101166,
                        0.19388319551944733,
                        -0.07990721613168716,
                        -0.016202155500650406,
                        -0.21481145918369293,
                        0.11618656665086746,
                        -0.16887496411800385,
                        0.31427013874053955,
                        0.6249197721481323,
                        0.2175375372171402,
                        0.08719515800476074,
                        -0.006088544148951769,
                        0.008815672248601913,
                        0.042645446956157684,
                        -0.0172258447855711,
                        -0.0032570359762758017,
                        0.11477259546518326,
                        -0.1658594161272049,
                        -0.04640883952379227,
                        0.03331206366419792,
                        -0.2150488942861557,
                        0.49354469776153564,
                        0.016061069443821907,
                        -0.056623347103595734,
                        -0.09897197782993317,
                        0.12554652988910675,
                        0.10401611030101776,
                        0.026586933061480522,
                        -0.06099169701337814,
                        0.16197235882282257,
                        0.024139855057001114,
                        -0.039550479501485825,
                        0.0053072706796228886,
                        -0.014661559835076332,
                        0.17973311245441437,
                        0.0947217047214508,
                        0.04339108616113663,
                        -0.12978240847587585,
                        -0.022487176582217216,
                        -0.17841795086860657,
                        -0.012719579972326756,
                        0.10027343034744263,
                        0.10175193101167679,
                        -0.08393009752035141,
                        0.115895114839077,
                        0.0003223228850401938,
                        -0.01635124161839485,
                        -0.053501326590776443,
                        0.0018676992040127516,
                        -0.10399891436100006,
                        0.05088020861148834,
                        -0.09667548537254333,
                        0.17791007459163666,
                        -0.025918802246451378,
                        -0.15878383815288544,
                        0.15209418535232544,
                        0.05490675941109657,
                        -0.28241783380508423,
                        0.11442077904939651,
                        -0.09826427698135376,
                        -0.045684125274419785,
                        -0.012850047089159489,
                        0.07983344793319702,
                        0.04263320192694664,
                        0.11264948546886444,
                        -0.028102289885282516,
                        0.11646013706922531,
                        0.07932230085134506,
                        -0.06089085713028908,
                        -0.06528924405574799,
                        -0.11149807274341583,
                        0.18338869512081146,
                        0.008507168851792812,
                        0.054463982582092285,
                        -0.1651701182126999,
                        0.0013423500349745154,
                        -0.026956290006637573,
                        0.03151381388306618,
                        0.09941581636667252,
                        0.18277885019779205,
                        -0.12422116845846176,
                        0.0184536911547184,
                        0.14997795224189758,
                        0.02079029381275177,
                        -0.17438456416130066,
                        0.27570322155952454,
                        0.06205352395772934,
                        0.052592337131500244,
                        -0.009781633503735065,
                        -0.07408595830202103,
                        -0.03207983449101448,
                        0.07290510833263397,
                        0.07326887547969818,
                        -0.11525960266590118,
                        0.08244525641202927,
                        -0.11594982445240021,
                        -0.01774301938712597,
                        0.014054286293685436,
                        -0.12472356855869293,
                        -0.05068620294332504,
                        -0.08632296323776245,
                        0.010692211799323559,
                        0.07353371381759644,
                        -0.10613439977169037,
                        -0.10377461463212967,
                        0.13025163114070892,
                        -0.14715826511383057,
                        -0.01659667305648327,
                        0.005662559065967798,
                        -0.05352737009525299,
                        -0.01084503810852766,
                        -0.004305342677980661,
                        -0.10294310748577118,
                        0.03142053633928299,
                        0.10361123085021973,
                        0.0893300399184227,
                        -0.11386200785636902,
                        -0.08327218145132065,
                        0.11985068768262863,
                        0.04993079975247383,
                        -0.04851749911904335,
                        0.014719122089445591,
                        0.1087116226553917,
                        -0.08564390987157822,
                        -0.0354464054107666,
                        0.08416455239057541,
                        0.051252346485853195,
                        -0.0012558556627482176,
                        -0.1290692389011383,
                        -0.02213301509618759,
                        -0.034435540437698364,
                        0.06407932937145233,
                        -0.02896101213991642,
                        -0.0825539156794548,
                        0.033985115587711334,
                        0.033270642161369324,
                        -0.05664902180433273,
                        -0.0423181876540184,
                        0.08206859976053238,
                        0.08593197166919708,
                        -0.057893797755241394,
                        0.015111858025193214,
                        -0.015490763820707798,
                        -0.0071528018452227116,
                        -0.027787458151578903,
                        0.045056410133838654,
                        0.10573083162307739,
                        -0.002126071136444807,
                        -0.23969247937202454,
                        0.11354465782642365,
                        0.05825389176607132,
                        -0.12578682601451874,
                        -0.16782718896865845,
                        0.17915235459804535,
                        0.06470587104558945,
                        0.09936723858118057,
                        0.09915707260370255,
                        0.010616707615554333,
                        -0.11014211922883987,
                        0.06353568285703659,
                        0.1681400090456009,
                        -0.12517617642879486,
                        0.04681249335408211,
                        0.010057919658720493,
                        0.06186627596616745,
                        0.1972583830356598,
                        -0.009206827729940414,
                        0.3734113872051239,
                        -0.07528043538331985,
                        -0.008464918471872807,
                        0.10039341449737549,
                        0.059425920248031616,
                        0.0033313652966171503,
                        -0.11760330200195312,
                        0.06445933878421783,
                        0.15704107284545898,
                        -0.04899293929338455,
                        -0.14209648966789246,
                        -0.17804525792598724,
                        0.11530552059412003,
                        0.41357773542404175,
                        0.06750501692295074,
                        0.16526103019714355,
                        -0.1092362180352211,
                        0.0781799703836441,
                        0.10598460584878922,
                        0.9408900737762451,
                        -0.18505775928497314,
                        0.2430756837129593,
                        0.15459223091602325,
                        0.14773617684841156,
                        0.19057871401309967,
                        -0.17687222361564636,
                        -0.005428703501820564,
                        0.11451608687639236,
                        -0.16000708937644958,
                        -0.013756920583546162,
                        0.1352134495973587,
                        0.1477675586938858,
                        0.6108391880989075,
                        -0.10327358543872833,
                        0.1959095299243927,
                        0.22732001543045044,
                        -0.0864478275179863,
                        0.04731103777885437,
                        0.21181420981884003,
                        0.03545749559998512,
                        0.06096053868532181,
                        0.0058100251480937,
                        -0.07826684415340424,
                        -0.06010732799768448,
                        0.006478701718151569,
                        -0.35042861104011536,
                        0.31180673837661743,
                        0.1313638687133789
                    ]
                ],
                [
                    [
                        -0.05553538724780083,
                        0.0051003932021558285,
                        0.050866805016994476,
                        -0.028266742825508118,
                        -0.07236986607313156,
                        0.015144679695367813,
                        -0.11243186146020889,
                        -0.03342856094241142,
                        0.025855954736471176,
                        0.9228572249412537,
                        0.080112524330616,
                        -0.12477820366621017,
                        0.020221710205078125,
                        -0.0539429746568203,
                        0.2931158244609833,
                        -0.03632175922393799,
                        0.40299010276794434,
                        0.037695322185754776,
                        -0.029187830165028572,
                        -0.12232472002506256,
                        0.004984474740922451,
                        -0.018004432320594788,
                        0.019586406648159027,
                        0.13956645131111145,
                        0.186372309923172,
                        0.02675837278366089,
                        0.1686372458934784,
                        -0.08292262256145477,
                        0.09411688148975372,
                        0.29927703738212585,
                        -0.08060324937105179,
                        0.07848048210144043,
                        -0.038060031831264496,
                        -0.15368442237377167,
                        0.6802487373352051,
                        1.659445881843567,
                        0.5906646251678467,
                        0.5527592301368713,
                        0.029288291931152344,
                        -0.2739208936691284,
                        0.04471033811569214,
                        -0.004481882322579622,
                        0.15148280560970306,
                        -0.061186451464891434,
                        -0.009150157682597637,
                        -0.06721821427345276,
                        0.08468495309352875,
                        0.04751652106642723,
                        0.6339626312255859,
                        0.6982704997062683,
                        0.06937126070261002,
                        0.17844584584236145,
                        0.008420420810580254,
                        0.04710939899086952,
                        -0.03578215092420578,
                        -0.09359072893857956,
                        -0.19655394554138184,
                        0.15677295625209808,
                        -0.02489130012691021,
                        -0.0009426413453184068,
                        0.03472138196229935,
                        0.03318064659833908,
                        0.4268150329589844,
                        -0.0491185337305069,
                        0.04535125195980072,
                        0.013875325210392475,
                        0.02186591736972332,
                        0.07239088416099548,
                        -0.1486562341451645,
                        -0.025305848568677902,
                        0.04551710933446884,
                        0.054333966225385666,
                        -0.0461471825838089,
                        -0.19208753108978271,
                        0.12390846759080887,
                        0.20797593891620636,
                        0.04670571908354759,
                        -0.023396192118525505,
                        -0.44740936160087585,
                        0.01851848140358925,
                        -0.1185825765132904,
                        -0.12149962037801743,
                        0.058286793529987335,
                        0.027140358462929726,
                        0.0920971930027008,
                        0.07657477259635925,
                        -0.15557917952537537,
                        0.04651818424463272,
                        0.03197171539068222,
                        -0.008834373205900192,
                        -0.12724605202674866,
                        0.07775118201971054,
                        0.00043984345393255353,
                        -0.03626209497451782,
                        0.1398213654756546,
                        -0.35886555910110474,
                        0.1641949713230133,
                        0.1355879306793213,
                        -0.16203029453754425,
                        -0.20503254234790802,
                        -0.23092986643314362,
                        -0.3448407053947449,
                        0.05690694972872734,
                        0.12673968076705933,
                        0.12413553148508072,
                        -0.0012686728732660413,
                        0.021042807027697563,
                        -0.0370478481054306,
                        -0.10173903405666351,
                        -0.07933031022548676,
                        -0.3167583644390106,
                        0.009823538362979889,
                        -0.04477250576019287,
                        -0.6737347841262817,
                        -0.1210540309548378,
                        -0.13403095304965973,
                        -0.056202344596385956,
                        0.136439710855484,
                        -0.05098840221762657,
                        0.057487402111291885,
                        0.09478957206010818,
                        0.004522773437201977,
                        0.05318988114595413,
                        0.11053846031427383,
                        0.038274433463811874,
                        -0.05988113954663277,
                        -0.15066960453987122,
                        0.0887988954782486,
                        -0.088498555123806,
                        -0.01522317435592413,
                        -0.004723557271063328,
                        0.1971493512392044,
                        -0.016697358340024948,
                        0.12327674776315689,
                        -0.04239269345998764,
                        -0.02897234447300434,
                        -0.0898362323641777,
                        0.14398586750030518,
                        -0.00949949212372303,
                        0.15968669950962067,
                        0.0401630662381649,
                        0.09138444066047668,
                        -0.080861397087574,
                        0.0998821035027504,
                        0.040245864540338516,
                        0.022163797169923782,
                        0.06715195626020432,
                        -0.08078596740961075,
                        -0.0866602212190628,
                        -0.034299336373806,
                        0.07540729641914368,
                        0.015098502859473228,
                        -0.026663988828659058,
                        -0.029316579923033714,
                        0.018720636144280434,
                        0.05129159614443779,
                        0.058688584715127945,
                        -0.08214804530143738,
                        -0.07498607039451599,
                        0.018536237999796867,
                        -0.07300005853176117,
                        0.01683572493493557,
                        0.026089170947670937,
                        0.015869567170739174,
                        -0.12258845567703247,
                        -0.017896251752972603,
                        0.14488476514816284,
                        0.03279862925410271,
                        -0.0487401969730854,
                        -0.00016173644689843059,
                        0.11863572150468826,
                        0.12154924869537354,
                        0.03309996798634529,
                        -0.023416753858327866,
                        0.017394302412867546,
                        0.005223546177148819,
                        -0.06970717012882233,
                        0.02242734469473362,
                        -0.00015553724369965494,
                        0.006970842368900776,
                        0.025382645428180695,
                        0.015594691969454288,
                        0.0036351617891341448,
                        -0.09139607101678848,
                        0.019061177968978882,
                        -0.016981719061732292,
                        -0.028355833142995834,
                        0.03809631988406181,
                        0.10262460261583328,
                        -0.21845102310180664,
                        0.015209434553980827,
                        0.05946159362792969,
                        0.07343132793903351,
                        -0.016015613451600075,
                        0.19825750589370728,
                        -0.10860276967287064,
                        0.18463703989982605,
                        0.002322569489479065,
                        0.0059608169831335545,
                        0.1245986819267273,
                        0.04083742946386337,
                        0.7660066485404968,
                        0.0963524803519249,
                        -0.04676005244255066,
                        0.06720110774040222,
                        0.07316460460424423,
                        0.28483620285987854,
                        0.17554599046707153,
                        0.5409883260726929,
                        0.021365264430642128,
                        0.114541195333004,
                        0.10458984225988388,
                        0.06135303154587746,
                        5.8168559917248785e-05,
                        -0.008520585484802723,
                        0.10992076247930527,
                        0.11176195740699768,
                        0.056833092123270035,
                        -0.022394128143787384,
                        -0.09158451855182648,
                        -0.05959527939558029,
                        0.23600323498249054,
                        0.10946304351091385,
                        0.2310817986726761,
                        0.05069158226251602,
                        0.015239713713526726,
                        0.5803993940353394,
                        1.0631014108657837,
                        0.6144335865974426,
                        0.5180505514144897,
                        0.049484726041555405,
                        0.07987413555383682,
                        0.17718985676765442,
                        -0.09812846034765244,
                        0.13149498403072357,
                        0.12688767910003662,
                        -0.06368044763803482,
                        0.09626084566116333,
                        0.1537213921546936,
                        0.15544277429580688,
                        1.0330297946929932,
                        0.5048483610153198,
                        -0.029490457847714424,
                        0.10495643317699432,
                        0.05041627958416939,
                        0.14969874918460846,
                        -0.010983332991600037,
                        -0.09491776674985886,
                        0.07393650710582733,
                        0.2037406861782074,
                        0.08666092902421951,
                        -0.06860112398862839,
                        0.19956359267234802,
                        0.13248848915100098,
                        0.2331819087266922,
                        -0.01933235116302967
                    ],
                    [
                        -0.01960854046046734,
                        0.11612644046545029,
                        -0.01607421226799488,
                        0.07632721960544586,
                        -0.06526637822389603,
                        0.08921632170677185,
                        0.07771848142147064,
                        0.01443319022655487,
                        -0.023715699091553688,
                        -0.7485886216163635,
                        0.09530234336853027,
                        -0.0035691861994564533,
                        -0.19943661987781525,
                        0.026018857955932617,
                        -0.2287195771932602,
                        -0.27514755725860596,
                        -0.3849027752876282,
                        0.12939655780792236,
                        0.018213151022791862,
                        -0.03777720406651497,
                        -0.06960821896791458,
                        0.09080367535352707,
                        -0.05727054178714752,
                        -0.039946578443050385,
                        -0.1393069326877594,
                        0.0587226077914238,
                        -0.27916181087493896,
                        -0.020191194489598274,
                        0.1517971307039261,
                        -0.18816031515598297,
                        -0.06606290489435196,
                        -0.18092216551303864,
                        0.004203822463750839,
                        0.052529431879520416,
                        -0.8287761211395264,
                        -1.1986284255981445,
                        -0.6854650378227234,
                        -0.9855853319168091,
                        0.1602073311805725,
                        -0.026368288323283195,
                        0.08822279423475266,
                        0.025198033079504967,
                        -0.16871672868728638,
                        -0.004706748761236668,
                        -0.008416101336479187,
                        0.029171887785196304,
                        -0.3003820478916168,
                        -0.04031424596905708,
                        -0.5813139081001282,
                        -0.8052629828453064,
                        -0.10446964204311371,
                        -0.02821052446961403,
                        -0.0036427376326173544,
                        0.10704679042100906,
                        -0.13940538465976715,
                        0.16682416200637817,
                        0.25926315784454346,
                        -0.20006121695041656,
                        0.019919799640774727,
                        0.05039020627737045,
                        0.049137428402900696,
                        0.036857035011053085,
                        -0.37303265929222107,
                        0.029743244871497154,
                        0.12004812061786652,
                        -0.029913071542978287,
                        -0.1199130266904831,
                        -0.07945077866315842,
                        -0.0013995657209306955,
                        0.09711059927940369,
                        -0.08360107243061066,
                        0.006552296224981546,
                        -0.10403680056333542,
                        0.1010408028960228,
                        0.011328776367008686,
                        -0.05012191832065582,
                        -0.06716054677963257,
                        -0.13606441020965576,
                        0.22163960337638855,
                        -0.06519563496112823,
                        0.13874365389347076,
                        0.01571430265903473,
                        -0.07592394948005676,
                        0.004788944032043219,
                        0.011733581312000751,
                        -0.1101200059056282,
                        0.1840265840291977,
                        -0.08252228796482086,
                        0.2324538677930832,
                        0.0300365649163723,
                        0.05831794813275337,
                        0.05861113592982292,
                        0.09480217844247818,
                        -0.053888630121946335,
                        0.01368626020848751,
                        0.11389434337615967,
                        -0.08776969462633133,
                        -0.03853895887732506,
                        0.25366470217704773,
                        0.05878538265824318,
                        0.23826119303703308,
                        0.2105422168970108,
                        -0.044046565890312195,
                        -0.0023955628275871277,
                        -0.1725463569164276,
                        -0.09820123016834259,
                        0.0013478422770276666,
                        -0.016142655164003372,
                        -0.1284845620393753,
                        0.049300067126750946,
                        0.16534550487995148,
                        -0.04716223105788231,
                        0.1912253051996231,
                        0.396671861410141,
                        0.028720008209347725,
                        0.09766283631324768,
                        -0.0684482604265213,
                        -0.20347043871879578,
                        0.06430734694004059,
                        -0.021219687536358833,
                        -0.11817467957735062,
                        0.005910385400056839,
                        -0.0885624960064888,
                        -0.10737870633602142,
                        0.08021841943264008,
                        0.02872074767947197,
                        0.13532555103302002,
                        -0.10600602626800537,
                        -0.021569913253188133,
                        -0.06720547378063202,
                        -0.18391093611717224,
                        0.0250930767506361,
                        -0.11108111590147018,
                        -0.13618217408657074,
                        -0.04344349354505539,
                        -0.03482165187597275,
                        -0.12359970808029175,
                        0.0035477220080792904,
                        -0.08743710070848465,
                        -0.07931534945964813,
                        -0.04613645002245903,
                        0.05697730556130409,
                        0.02896318957209587,
                        -0.02339601144194603,
                        -0.06264512240886688,
                        0.05699263885617256,
                        -0.12456706911325455,
                        -0.05778080224990845,
                        -0.006596971768885851,
                        -0.013519293628633022,
                        -0.07350753992795944,
                        -0.07381050288677216,
                        0.02832055278122425,
                        -0.049516189843416214,
                        0.06919389218091965,
                        -0.025415826588869095,
                        -0.052390556782484055,
                        0.10841438174247742,
                        0.07928487658500671,
                        -0.1699932962656021,
                        0.03161952644586563,
                        0.06362196058034897,
                        0.022917507216334343,
                        0.013720715418457985,
                        0.03956048563122749,
                        0.03482674062252045,
                        0.006403970066457987,
                        0.005863181781023741,
                        -0.0059792655520141125,
                        0.13778622448444366,
                        -0.03189755231142044,
                        -0.029978714883327484,
                        -0.062209874391555786,
                        -0.13206526637077332,
                        0.09165012091398239,
                        -0.05781291052699089,
                        -0.08922047913074493,
                        -0.14823363721370697,
                        -0.13980694115161896,
                        -0.15141448378562927,
                        -0.07259752601385117,
                        0.00030647311359643936,
                        -0.11666461825370789,
                        0.059799015522003174,
                        -0.050754815340042114,
                        0.00966168288141489,
                        -0.052494265139102936,
                        0.04786030575633049,
                        -0.11895518749952316,
                        -0.11477760970592499,
                        -0.03563028946518898,
                        0.03695772588253021,
                        -0.044800300151109695,
                        0.07674407213926315,
                        -0.15367545187473297,
                        0.03146790340542793,
                        -0.018811997026205063,
                        0.06935131549835205,
                        0.08651028573513031,
                        0.006760227959603071,
                        -0.05624832212924957,
                        -0.5813949108123779,
                        0.03179093077778816,
                        0.03406102582812309,
                        -0.1478816419839859,
                        -0.1543632298707962,
                        -0.4371483623981476,
                        -0.24662140011787415,
                        -0.5837300419807434,
                        0.10204459726810455,
                        -0.040466293692588806,
                        -0.02459384873509407,
                        0.06336192786693573,
                        0.02205067314207554,
                        -0.02161949872970581,
                        0.00869063287973404,
                        -0.1395917385816574,
                        0.005423279479146004,
                        -0.12174031883478165,
                        0.1785285770893097,
                        0.05389123409986496,
                        -0.1922094076871872,
                        0.026187637820839882,
                        -0.2769336402416229,
                        0.03019609861075878,
                        -0.14339306950569153,
                        -0.6868506073951721,
                        -0.5952098369598389,
                        0.09071114659309387,
                        -0.5581305623054504,
                        -0.05021853744983673,
                        -0.2062784731388092,
                        -0.17606094479560852,
                        -0.029787704348564148,
                        -0.038926757872104645,
                        0.014536548405885696,
                        0.0703013613820076,
                        0.021247755736112595,
                        -0.2513091564178467,
                        0.10883097350597382,
                        -0.6645470857620239,
                        -0.5986908674240112,
                        -0.11711465567350388,
                        0.0864907056093216,
                        -0.11520963162183762,
                        0.06776542961597443,
                        -0.08728605508804321,
                        0.06382483243942261,
                        0.024840939790010452,
                        -0.05654432624578476,
                        -0.01672288589179516,
                        -0.12048808485269547,
                        -0.030403170734643936,
                        -0.002215093234553933,
                        -0.7904683947563171,
                        0.0002568199415691197
                    ],
                    [
                        0.013130859471857548,
                        0.06788839399814606,
                        0.06013435125350952,
                        -0.25263601541519165,
                        0.08709381520748138,
                        -0.09618046879768372,
                        -0.026199722662568092,
                        -0.04387999325990677,
                        -0.04148227348923683,
                        -0.1475093513727188,
                        -0.030287543311715126,
                        -0.022950714454054832,
                        0.0643838569521904,
                        -0.059764593839645386,
                        -0.4148925840854645,
                        -0.14236417412757874,
                        -0.0860317051410675,
                        -0.1955365538597107,
                        0.08218023180961609,
                        0.11455101519823074,
                        -0.024202823638916016,
                        0.028527162969112396,
                        0.03134613856673241,
                        0.030443746596574783,
                        0.07384615391492844,
                        0.07606883347034454,
                        0.09559209644794464,
                        -0.011860583908855915,
                        -0.03867757320404053,
                        -0.18511472642421722,
                        -0.06786751002073288,
                        0.031450700014829636,
                        -0.036344218999147415,
                        -0.07607625424861908,
                        -0.18121854960918427,
                        -0.24633732438087463,
                        -0.22223201394081116,
                        -0.07233228534460068,
                        -0.02854720503091812,
                        -0.22441796958446503,
                        0.2261529415845871,
                        -0.08883650600910187,
                        -0.005145406350493431,
                        -0.007676520384848118,
                        0.04143991693854332,
                        0.10078812390565872,
                        0.0673413798213005,
                        -0.01402681041508913,
                        0.24159304797649384,
                        -0.1029423400759697,
                        -0.10785151273012161,
                        -0.04912331700325012,
                        0.04155972599983215,
                        -0.0007857168675400317,
                        -0.04431702941656113,
                        0.01938091777265072,
                        0.08591227978467941,
                        -0.09733787924051285,
                        -0.04276105388998985,
                        -0.026051560416817665,
                        0.07373487204313278,
                        0.02711174637079239,
                        -0.2896035611629486,
                        -0.11277879029512405,
                        -0.09052770584821701,
                        0.05264876410365105,
                        0.09727761149406433,
                        0.09994358569383621,
                        0.07486182451248169,
                        0.010146012529730797,
                        0.0010758106363937259,
                        0.22965364158153534,
                        0.06170741096138954,
                        -0.34207025170326233,
                        0.05383434519171715,
                        -0.004530276171863079,
                        0.10874475538730621,
                        -0.11931662261486053,
                        -0.2701494097709656,
                        0.011149447411298752,
                        -0.07079225778579712,
                        0.03719126805663109,
                        0.056501321494579315,
                        0.053962305188179016,
                        -0.15681910514831543,
                        -0.11242804676294327,
                        -0.16738517582416534,
                        -0.13954290747642517,
                        0.18330849707126617,
                        -0.04410197213292122,
                        0.12319565564393997,
                        -0.0029286087956279516,
                        -0.0930958241224289,
                        -0.012010692618787289,
                        -0.042130447924137115,
                        -0.006724402774125338,
                        -0.1815408617258072,
                        0.04082072526216507,
                        0.04360128194093704,
                        -0.266757607460022,
                        -0.1369868814945221,
                        0.02253258414566517,
                        -0.0334259569644928,
                        -0.20338350534439087,
                        -0.13287654519081116,
                        0.050850141793489456,
                        -0.06747426837682724,
                        -0.026713043451309204,
                        -0.01805075816810131,
                        0.1914227157831192,
                        0.09537792950868607,
                        0.031623318791389465,
                        0.041154030710458755,
                        -0.031104613095521927,
                        0.008961073122918606,
                        -0.04547461122274399,
                        0.09937130659818649,
                        -0.01735740527510643,
                        0.06411811709403992,
                        0.039455071091651917,
                        -0.06884904950857162,
                        -0.08997637778520584,
                        0.06422767043113708,
                        -0.0018091279780492187,
                        -0.112069271504879,
                        -0.1962638944387436,
                        -0.24700826406478882,
                        -0.23059067130088806,
                        0.018639877438545227,
                        0.11521515250205994,
                        0.09174196422100067,
                        -0.02174980379641056,
                        0.013503208756446838,
                        -0.13802483677864075,
                        -0.009632902219891548,
                        -0.03987671807408333,
                        0.07687827199697495,
                        0.007498939987272024,
                        -0.0003503923653624952,
                        -0.19407711923122406,
                        -0.004632540978491306,
                        -0.0002031797921517864,
                        -0.07187014818191528,
                        -0.024944916367530823,
                        -0.131362646818161,
                        0.17383061349391937,
                        0.11420790106058121,
                        -0.05479087680578232,
                        0.2073322981595993,
                        -0.09567907452583313,
                        0.0582704171538353,
                        -0.00995528046041727,
                        -0.03255493938922882,
                        0.08611996471881866,
                        0.026194389909505844,
                        -0.06928927451372147,
                        -0.11962136626243591,
                        0.052300989627838135,
                        0.12087998539209366,
                        0.050473734736442566,
                        -0.08919449895620346,
                        0.021020609885454178,
                        -0.002780097769573331,
                        -0.09365824609994888,
                        -0.137597918510437,
                        -0.002160365227609873,
                        0.03190620243549347,
                        -0.04407380893826485,
                        0.029612775892019272,
                        -0.07140979915857315,
                        0.05326465144753456,
                        0.0498998798429966,
                        -0.09158984571695328,
                        -0.13360074162483215,
                        -0.031528834253549576,
                        -0.1011139526963234,
                        -0.01505214162170887,
                        0.08187098801136017,
                        -0.09486750513315201,
                        0.11460957676172256,
                        0.08848538994789124,
                        0.04413197189569473,
                        0.03321857005357742,
                        -0.013494664803147316,
                        -0.058420248329639435,
                        0.17226073145866394,
                        -0.1166958212852478,
                        0.01582247018814087,
                        -0.09924229979515076,
                        0.010373271070420742,
                        -0.032399874180555344,
                        -0.07080838084220886,
                        0.1061309427022934,
                        -0.03240640088915825,
                        -0.12074493616819382,
                        -0.03307006508111954,
                        0.21140792965888977,
                        -0.0903145894408226,
                        -0.11228563636541367,
                        0.037933506071567535,
                        -0.05556534603238106,
                        -0.2627434730529785,
                        0.09238337725400925,
                        -0.0442943274974823,
                        -0.1638851761817932,
                        -0.033590950071811676,
                        -0.3162984848022461,
                        0.10789422690868378,
                        -0.2001793533563614,
                        0.11118178814649582,
                        0.0404205396771431,
                        -0.08901152014732361,
                        -0.07069407403469086,
                        -0.053125862032175064,
                        0.017896849662065506,
                        -0.04218979924917221,
                        -0.046140458434820175,
                        0.03593684732913971,
                        0.037836261093616486,
                        0.004880276974290609,
                        -0.025771155953407288,
                        -0.043726179748773575,
                        0.010851654224097729,
                        -0.08247311413288116,
                        0.05100442096590996,
                        -0.04480830579996109,
                        -0.16701559722423553,
                        -0.10874345153570175,
                        -0.3470509946346283,
                        0.22097687423229218,
                        -0.21121732890605927,
                        -0.06643564999103546,
                        0.028706815093755722,
                        0.14781486988067627,
                        -0.025726448744535446,
                        -0.03778180480003357,
                        0.00015096229617483914,
                        0.014580091461539268,
                        0.1649196594953537,
                        -0.07997020334005356,
                        -0.3191123604774475,
                        -0.24898789823055267,
                        -0.15998098254203796,
                        -0.18067698180675507,
                        -0.04929161071777344,
                        -0.03313630446791649,
                        -0.11208046227693558,
                        0.0175662562251091,
                        0.009156608022749424,
                        0.12434587627649307,
                        -0.08859952539205551,
                        -0.03201238811016083,
                        -0.04303287714719772,
                        0.1108466386795044,
                        -0.11438489705324173,
                        -0.24473649263381958
                    ],
                    [
                        0.047775182873010635,
                        -0.05286373198032379,
                        -0.0897575318813324,
                        -0.04346609488129616,
                        -0.061000239104032516,
                        -0.10697836428880692,
                        0.13631309568881989,
                        0.1424648016691208,
                        0.03275125101208687,
                        -0.474315881729126,
                        0.06855069100856781,
                        -0.0033448832109570503,
                        -0.5038747191429138,
                        -0.011839417740702629,
                        -0.10491945594549179,
                        -0.42079317569732666,
                        -0.11679482460021973,
                        -0.09419646859169006,
                        -0.06184590607881546,
                        -0.04395972937345505,
                        -0.062477465718984604,
                        0.13208001852035522,
                        -0.024538516998291016,
                        0.20289111137390137,
                        0.11471036821603775,
                        0.05718600004911423,
                        -0.10194423794746399,
                        -0.044223200529813766,
                        -0.051565807312726974,
                        -0.1619962602853775,
                        -0.25897935032844543,
                        0.2839035987854004,
                        0.19732283055782318,
                        0.08762568235397339,
                        0.07008714228868484,
                        -0.41086021065711975,
                        -0.7710405588150024,
                        -0.3350502848625183,
                        0.29559823870658875,
                        0.1332409679889679,
                        0.10188090056180954,
                        0.1385686695575714,
                        -0.32627418637275696,
                        0.05646573007106781,
                        -0.15437397360801697,
                        -0.038667481392621994,
                        -0.16272848844528198,
                        -0.02345028892159462,
                        -0.19792623817920685,
                        -0.07271230965852737,
                        -0.20816437900066376,
                        -0.11441326141357422,
                        0.025696679949760437,
                        0.09209363907575607,
                        -0.09343720972537994,
                        0.005878729280084372,
                        0.14192940294742584,
                        -0.10510312765836716,
                        -0.09339052438735962,
                        0.12813378870487213,
                        0.026036912575364113,
                        0.05057935044169426,
                        -0.7089144587516785,
                        -0.11909788846969604,
                        -0.017993248999118805,
                        0.10828541219234467,
                        0.027154000476002693,
                        0.06941511482000351,
                        0.12851418554782867,
                        -0.07308506965637207,
                        -0.1197393462061882,
                        0.1617237627506256,
                        0.10954690724611282,
                        0.15854312479496002,
                        0.20911575853824615,
                        0.0872240886092186,
                        -0.05920493230223656,
                        0.1391308307647705,
                        -0.06939467787742615,
                        -0.17783699929714203,
                        0.18718589842319489,
                        0.09223105013370514,
                        0.10429482907056808,
                        0.047146763652563095,
                        -0.02454136312007904,
                        0.055384740233421326,
                        0.1439838707447052,
                        0.09306211769580841,
                        -0.04151023179292679,
                        -0.10495749861001968,
                        0.10446788370609283,
                        0.17712661623954773,
                        0.11894731968641281,
                        0.06508353352546692,
                        -0.015343870036303997,
                        -0.09976019710302353,
                        0.18295395374298096,
                        0.010745986364781857,
                        0.1310606151819229,
                        0.22148457169532776,
                        -0.3369000256061554,
                        -0.14203619956970215,
                        0.11218314617872238,
                        0.1918826550245285,
                        -0.04427683725953102,
                        0.14246340095996857,
                        -0.08762750774621964,
                        0.1475190371274948,
                        -0.054971400648355484,
                        0.0010614758357405663,
                        -0.08019872009754181,
                        0.032019831240177155,
                        -0.38113167881965637,
                        0.46926987171173096,
                        0.048059798777103424,
                        0.04370369389653206,
                        0.04481351003050804,
                        0.030298812314867973,
                        -0.02420097403228283,
                        -0.07070168107748032,
                        -0.010078324005007744,
                        -0.1407887488603592,
                        -0.05512242019176483,
                        0.0633523166179657,
                        0.020612683147192,
                        -0.016653334721922874,
                        -0.3249903619289398,
                        -0.10686318576335907,
                        0.011252432130277157,
                        0.08888287097215652,
                        0.035347744822502136,
                        -0.007274292409420013,
                        0.005298770498484373,
                        -0.12251854687929153,
                        -0.010513100773096085,
                        -0.03752104192972183,
                        -0.006398702505975962,
                        -0.03681590408086777,
                        -0.05540888383984566,
                        0.0805022194981575,
                        0.1064373105764389,
                        0.04975113272666931,
                        -0.029520293697714806,
                        -0.0623905211687088,
                        0.15462331473827362,
                        0.09014652669429779,
                        -0.08716534078121185,
                        -0.09379565715789795,
                        0.027410827577114105,
                        -0.09303482621908188,
                        -0.09929961711168289,
                        -0.08063489943742752,
                        -0.06029777228832245,
                        0.0073398929089307785,
                        -0.12101449072360992,
                        0.00609675794839859,
                        -0.0253144484013319,
                        0.19575609266757965,
                        0.16938278079032898,
                        -0.14283224940299988,
                        -0.041177310049533844,
                        0.05499212071299553,
                        0.2016420066356659,
                        0.2387758493423462,
                        0.05927950516343117,
                        0.19671118259429932,
                        -0.066243015229702,
                        0.04100075364112854,
                        0.10677648335695267,
                        -0.223739355802536,
                        -0.03898558020591736,
                        -0.039525989443063736,
                        0.14040251076221466,
                        0.10792022198438644,
                        -0.10480593144893646,
                        -0.09903764724731445,
                        0.17476938664913177,
                        -0.012534260749816895,
                        0.06342512369155884,
                        0.011348514817655087,
                        0.044501274824142456,
                        0.020005080848932266,
                        0.06025129184126854,
                        -0.052259497344493866,
                        -0.04931294545531273,
                        -0.15023766458034515,
                        -0.035795122385025024,
                        0.024952013045549393,
                        0.027770275250077248,
                        -0.05514111742377281,
                        0.060677677392959595,
                        -0.15348370373249054,
                        -0.05970219522714615,
                        0.012810233049094677,
                        -0.008204992860555649,
                        -0.34286820888519287,
                        -0.13031354546546936,
                        0.08181954175233841,
                        -0.06181805953383446,
                        0.3638160526752472,
                        0.12167226523160934,
                        -0.6788817644119263,
                        0.12659865617752075,
                        -0.10860268771648407,
                        -0.7215137481689453,
                        0.1385546624660492,
                        -0.03669452667236328,
                        -0.11110788583755493,
                        -0.06532003730535507,
                        0.14286832511425018,
                        0.06619476526975632,
                        -0.06517325341701508,
                        -0.21667470037937164,
                        0.21591170132160187,
                        0.16498464345932007,
                        0.2661673128604889,
                        0.385593056678772,
                        0.15935610234737396,
                        0.2501660883426666,
                        0.04547593742609024,
                        -0.06852664053440094,
                        -0.07462745904922485,
                        -0.1384132355451584,
                        -0.0816916972398758,
                        0.14519530534744263,
                        0.13876134157180786,
                        0.15014077723026276,
                        -0.20551492273807526,
                        -0.47921034693717957,
                        -0.008715066127479076,
                        0.27808448672294617,
                        0.2287900149822235,
                        0.08349896967411041,
                        -0.0500093549489975,
                        -0.3906555473804474,
                        0.005161887034773827,
                        0.006106312852352858,
                        0.2279779016971588,
                        0.059395793825387955,
                        -0.03235292434692383,
                        -0.1804550439119339,
                        -0.6528618335723877,
                        -0.044700250029563904,
                        0.03152879700064659,
                        -0.04325920715928078,
                        0.019292796030640602,
                        0.08367197215557098,
                        0.10891160368919373,
                        0.07449419051408768,
                        -0.4585147798061371,
                        -0.008401933126151562,
                        0.10636062175035477,
                        -0.07856079936027527,
                        0.35698238015174866,
                        -0.8963848948478699,
                        -0.041283585131168365
                    ],
                    [
                        0.21629571914672852,
                        -0.15591424703598022,
                        -0.027474192902445793,
                        0.2644703984260559,
                        0.11042258143424988,
                        0.008365990594029427,
                        0.14258207380771637,
                        -0.115730881690979,
                        -0.03153654560446739,
                        -0.3023262023925781,
                        -0.07910864055156708,
                        -0.026580477133393288,
                        0.11774773895740509,
                        0.1488468050956726,
                        -0.04619791358709335,
                        0.09296666830778122,
                        0.12905941903591156,
                        0.05726750195026398,
                        -0.07923199236392975,
                        0.06486409157514572,
                        0.045325540006160736,
                        -0.0877433493733406,
                        0.22503222525119781,
                        -0.19759848713874817,
                        0.04943309351801872,
                        0.07579725980758667,
                        0.20218797028064728,
                        0.014332440681755543,
                        0.07326750457286835,
                        0.4637635052204132,
                        -0.0052939471788704395,
                        0.07142634689807892,
                        0.05251369625329971,
                        0.21688848733901978,
                        0.1735580414533615,
                        0.7414291501045227,
                        0.6834031343460083,
                        0.06492989510297775,
                        -0.059339433908462524,
                        -0.19103080034255981,
                        -0.06300234794616699,
                        -0.0021313787437975407,
                        -0.10274068266153336,
                        -0.07540185749530792,
                        -0.136831596493721,
                        -0.07064014673233032,
                        0.021005455404520035,
                        -0.17972396314144135,
                        0.11077791452407837,
                        0.15509699285030365,
                        0.11557614803314209,
                        0.09792520105838776,
                        0.013868493027985096,
                        0.10576000809669495,
                        0.13152755796909332,
                        -0.035845402628183365,
                        -0.1327015906572342,
                        0.023181047290563583,
                        0.010524566285312176,
                        -0.0938851609826088,
                        0.017243923619389534,
                        0.1739184558391571,
                        0.5374352931976318,
                        0.14538098871707916,
                        0.18752822279930115,
                        -0.07441835105419159,
                        -0.11327189207077026,
                        -0.0609322264790535,
                        0.004575019236654043,
                        0.07491539418697357,
                        0.141656294465065,
                        -0.060067594051361084,
                        -0.15957039594650269,
                        0.06360975652933121,
                        -0.05273965001106262,
                        0.03149845451116562,
                        0.12805818021297455,
                        0.1457735151052475,
                        -0.10659121721982956,
                        0.16896271705627441,
                        -0.1767401248216629,
                        0.18373318016529083,
                        -0.09519999474287033,
                        -0.06974957138299942,
                        0.04188251495361328,
                        -0.11628998816013336,
                        0.12573012709617615,
                        0.07905050367116928,
                        -0.17738065123558044,
                        0.11612726002931595,
                        -0.04584502801299095,
                        0.01353837177157402,
                        0.0030212292913347483,
                        -0.06294981390237808,
                        0.14619627594947815,
                        -0.05820479989051819,
                        0.01234594639390707,
                        0.04059810936450958,
                        -0.19380031526088715,
                        0.449746698141098,
                        0.06241920590400696,
                        -0.08896388113498688,
                        0.13396300375461578,
                        0.27538570761680603,
                        0.06902377307415009,
                        0.07018409669399261,
                        -0.08828937262296677,
                        -0.04719707369804382,
                        -0.09609286487102509,
                        -0.3346652686595917,
                        -0.018903352320194244,
                        -0.1314280480146408,
                        0.009384525939822197,
                        -0.2527438998222351,
                        -0.13838812708854675,
                        0.16286642849445343,
                        -0.27570366859436035,
                        0.15553122758865356,
                        -0.10906048119068146,
                        0.0004234625375829637,
                        0.06225619465112686,
                        0.010059275664389133,
                        0.1842794269323349,
                        0.006017087027430534,
                        -0.08112041652202606,
                        0.1936085969209671,
                        0.28719642758369446,
                        -0.030278487130999565,
                        -0.06324067711830139,
                        -0.059933945536613464,
                        -0.08485366404056549,
                        0.07042404264211655,
                        -0.13015252351760864,
                        -0.010725460946559906,
                        -0.0018547342624515295,
                        0.039014630019664764,
                        -0.05697210505604744,
                        0.13438920676708221,
                        -0.04686487093567848,
                        0.20697468519210815,
                        -0.09926999360322952,
                        -0.03478237986564636,
                        0.16910646855831146,
                        0.01873481273651123,
                        0.09670013189315796,
                        -0.09764152765274048,
                        0.03591691702604294,
                        -0.08243178576231003,
                        -0.0672275573015213,
                        0.05076638609170914,
                        -0.005555581767112017,
                        -0.015522236004471779,
                        0.08973802626132965,
                        -0.06655661761760712,
                        -0.08421415090560913,
                        0.004923318978399038,
                        0.09808685630559921,
                        -0.03894476592540741,
                        -0.1022551879286766,
                        0.19521720707416534,
                        -0.013299009762704372,
                        0.11992000788450241,
                        -0.07811322808265686,
                        -0.220953106880188,
                        0.008024015463888645,
                        -0.042459309101104736,
                        -0.03227929770946503,
                        -0.046150293201208115,
                        -0.00869115348905325,
                        0.10245434939861298,
                        -0.005934256128966808,
                        -0.011106222867965698,
                        -0.09680693596601486,
                        0.025494053959846497,
                        0.05970863997936249,
                        -0.034335389733314514,
                        0.13603068888187408,
                        -0.09077439457178116,
                        -0.026830866932868958,
                        0.029095619916915894,
                        -0.03522007167339325,
                        0.009576943702995777,
                        0.012952594086527824,
                        -0.033354949206113815,
                        -0.0036194012500345707,
                        0.011093578301370144,
                        0.06619828939437866,
                        0.012304157949984074,
                        -0.023883111774921417,
                        -0.02525745891034603,
                        -0.10997616499662399,
                        0.019051674753427505,
                        0.09056825190782547,
                        0.013499900698661804,
                        -0.12458973377943039,
                        0.0043324753642082214,
                        0.06492016464471817,
                        0.07141964137554169,
                        0.14528058469295502,
                        0.043846916407346725,
                        0.10131870210170746,
                        -0.16322264075279236,
                        -0.037356555461883545,
                        0.07782503217458725,
                        0.12478616833686829,
                        0.004552483092993498,
                        0.13382010161876678,
                        0.19891852140426636,
                        0.4060458242893219,
                        0.06164950877428055,
                        -0.18856000900268555,
                        -0.001160214189440012,
                        -0.004199363756924868,
                        -0.06713675707578659,
                        0.4276703894138336,
                        -0.24400997161865234,
                        -0.24966619908809662,
                        -0.032664183527231216,
                        0.1110127717256546,
                        0.15526644885540009,
                        0.07089464366436005,
                        0.6112836003303528,
                        -0.06636988371610641,
                        0.07592950761318207,
                        0.05614931136369705,
                        -0.11368629336357117,
                        0.016340091824531555,
                        0.3568513095378876,
                        0.15418215095996857,
                        0.31072530150413513,
                        -0.07250628620386124,
                        -0.004208088386803865,
                        -0.01436616200953722,
                        0.1748383492231369,
                        -0.4595373868942261,
                        0.007155130617320538,
                        -0.0802384614944458,
                        -0.1441795825958252,
                        -0.03207876533269882,
                        -0.14399504661560059,
                        0.3691440224647522,
                        0.5214865207672119,
                        0.008943954482674599,
                        0.14199519157409668,
                        0.10263883322477341,
                        -0.12734587490558624,
                        0.21301522850990295,
                        -0.10081061720848083,
                        0.03315677121281624,
                        0.02252839133143425,
                        0.09445042163133621,
                        0.09736066311597824,
                        -0.027111809700727463,
                        0.040746062994003296,
                        -0.2747613191604614,
                        0.11913835257291794
                    ],
                    [
                        -0.03502429276704788,
                        0.01144399493932724,
                        -0.10630542039871216,
                        0.10578250885009766,
                        -0.12481734901666641,
                        0.022742947563529015,
                        -0.03524578735232353,
                        -0.030743291601538658,
                        -0.025635188445448875,
                        0.8392688035964966,
                        -0.25559014081954956,
                        -0.08495953679084778,
                        0.11808671802282333,
                        -0.055115822702646255,
                        0.23373593389987946,
                        0.1096826121211052,
                        0.2690030634403229,
                        -0.11315646767616272,
                        -0.03199228271842003,
                        0.0007058687624521554,
                        0.05441462993621826,
                        -0.15865448117256165,
                        0.06083839759230614,
                        -0.05280870199203491,
                        0.07564049959182739,
                        -0.026930423453450203,
                        0.24541804194450378,
                        -0.03467260301113129,
                        -0.09642785042524338,
                        0.22630636394023895,
                        -0.03031560592353344,
                        0.5111002922058105,
                        -0.06652414053678513,
                        -0.08208271116018295,
                        0.48711302876472473,
                        0.7215879559516907,
                        0.5472458004951477,
                        0.6162768006324768,
                        -0.09821761399507523,
                        -0.025874333456158638,
                        -0.16187460720539093,
                        -0.018683066591620445,
                        0.2547885477542877,
                        -0.19046421349048615,
                        -0.1481780856847763,
                        0.1111145094037056,
                        0.3160775899887085,
                        -0.003154377220198512,
                        0.4921766519546509,
                        0.7949241399765015,
                        0.030879847705364227,
                        0.1076199933886528,
                        0.04284605383872986,
                        0.0597970113158226,
                        0.08281633257865906,
                        -0.1726035326719284,
                        -0.1351240575313568,
                        0.11954303085803986,
                        0.0568273589015007,
                        -0.0806431919336319,
                        0.038740091025829315,
                        -0.16042324900627136,
                        0.7421133518218994,
                        -0.1700482964515686,
                        0.013398351147770882,
                        -0.03239946439862251,
                        0.13031139969825745,
                        -0.05434483289718628,
                        -0.11940047889947891,
                        0.054164499044418335,
                        0.04681181535124779,
                        -0.08431791514158249,
                        -0.02380964532494545,
                        0.1515606790781021,
                        0.01618664525449276,
                        0.01686938852071762,
                        0.12105303257703781,
                        -0.025596357882022858,
                        -0.1358153522014618,
                        -0.1269836276769638,
                        -0.3456467390060425,
                        -0.0477956086397171,
                        -0.023257674649357796,
                        0.05309692770242691,
                        -0.005464818328619003,
                        0.019306553527712822,
                        -0.16552291810512543,
                        -0.06282558292150497,
                        -0.16916349530220032,
                        0.01767224445939064,
                        0.04610121250152588,
                        0.023787343874573708,
                        -0.08263760060071945,
                        -0.029485739767551422,
                        -0.02104346640408039,
                        -0.24639065563678741,
                        -0.02896987833082676,
                        0.03226601704955101,
                        -0.062483131885528564,
                        -0.20068934559822083,
                        -0.12464458495378494,
                        -0.18555019795894623,
                        -0.21814671158790588,
                        -0.07237306982278824,
                        0.12980550527572632,
                        0.03334597125649452,
                        -0.02690182439982891,
                        -0.1280023157596588,
                        -0.03922869637608528,
                        -0.10586399585008621,
                        -0.1905677765607834,
                        0.018053611740469933,
                        -0.22767576575279236,
                        -0.2126649171113968,
                        -0.09866153448820114,
                        -0.0471196249127388,
                        0.003519765567034483,
                        0.05594045668840408,
                        -0.12948058545589447,
                        -0.0005360612412914634,
                        0.22094780206680298,
                        -0.013651777990162373,
                        0.07748143374919891,
                        0.02058725245296955,
                        -0.12822465598583221,
                        0.11808611452579498,
                        0.01721137762069702,
                        -0.026892106980085373,
                        -0.0923493281006813,
                        0.0023100622929632664,
                        0.08942601829767227,
                        -0.044778600335121155,
                        -0.02368818037211895,
                        0.10179650783538818,
                        0.07455945014953613,
                        0.05365500599145889,
                        0.09762082248926163,
                        -0.090553417801857,
                        0.018786851316690445,
                        0.19011950492858887,
                        0.15405535697937012,
                        -0.021844524890184402,
                        0.06260337680578232,
                        0.08381703495979309,
                        0.03296626731753349,
                        0.02539943717420101,
                        0.027238084003329277,
                        -0.015559778548777103,
                        -0.06766301393508911,
                        7.916938920971006e-05,
                        0.018675724044442177,
                        -0.04622269049286842,
                        0.017725681886076927,
                        -0.006020848639309406,
                        -0.08400177210569382,
                        -0.021862557157874107,
                        0.03528112918138504,
                        0.050270963460206985,
                        -0.1055462434887886,
                        -0.014339495450258255,
                        0.049183834344148636,
                        -0.10337815433740616,
                        -0.0004882973153144121,
                        0.15496021509170532,
                        0.16558392345905304,
                        -0.0401914082467556,
                        0.02204851619899273,
                        -0.08193553239107132,
                        0.03217516839504242,
                        0.16009388864040375,
                        -0.06543146073818207,
                        -0.12010732293128967,
                        0.08948775380849838,
                        0.04211486503481865,
                        0.025194596499204636,
                        -0.08621533215045929,
                        -0.06754320859909058,
                        -0.010214712470769882,
                        0.0959932878613472,
                        -0.022145872935652733,
                        0.13166126608848572,
                        -0.014323675073683262,
                        -0.04141771048307419,
                        -0.006606112699955702,
                        0.06612753868103027,
                        -0.13080213963985443,
                        -0.043840259313583374,
                        -0.0037805973552167416,
                        -0.04804553464055061,
                        -0.035040296614170074,
                        -0.006402159575372934,
                        -0.04549497365951538,
                        0.05956924334168434,
                        -0.058198750019073486,
                        -0.07261096686124802,
                        -0.10101291537284851,
                        -0.10341775417327881,
                        -0.039800796657800674,
                        0.017025554552674294,
                        0.032180510461330414,
                        -0.13090597093105316,
                        0.4340896010398865,
                        -0.21438661217689514,
                        0.023916153237223625,
                        0.10071979463100433,
                        -0.08527024835348129,
                        0.17391446232795715,
                        0.07026437669992447,
                        0.1720277965068817,
                        -0.12305302917957306,
                        -0.08018673956394196,
                        -0.03817322477698326,
                        -0.06527472287416458,
                        -0.04987296834588051,
                        -0.21665093302726746,
                        -0.05600142106413841,
                        0.11054655909538269,
                        0.05864470452070236,
                        0.122586689889431,
                        -0.017866311594843864,
                        0.0047947121784091,
                        0.2034788578748703,
                        -0.15010206401348114,
                        0.25893476605415344,
                        -0.02247738279402256,
                        -0.004749096464365721,
                        0.281553715467453,
                        0.47590819001197815,
                        0.1618603616952896,
                        0.34971651434898376,
                        -0.09548918157815933,
                        0.10701946169137955,
                        -0.0021105632185935974,
                        0.03773994371294975,
                        0.017073195427656174,
                        -0.015860917046666145,
                        -0.07068902254104614,
                        0.12157941609621048,
                        0.1815248429775238,
                        0.0423615388572216,
                        0.6116844415664673,
                        0.6120331287384033,
                        0.0038262736052274704,
                        0.05170277878642082,
                        -0.01667805202305317,
                        -0.048791784793138504,
                        0.012687548995018005,
                        -0.18079611659049988,
                        -0.027300534769892693,
                        0.015550978481769562,
                        -0.0390169657766819,
                        -0.005797479767352343,
                        -0.07609070092439651,
                        -0.09513110667467117,
                        0.9330386519432068,
                        -0.04906538128852844
                    ],
                    [
                        -0.10743533074855804,
                        0.0011382905067875981,
                        -0.1286965310573578,
                        -0.007092925254255533,
                        0.11982198059558868,
                        -0.04300132393836975,
                        0.08971384912729263,
                        -0.04374660551548004,
                        -0.03734676539897919,
                        -0.1669989377260208,
                        -0.011668137274682522,
                        -0.08929447084665298,
                        0.21263863146305084,
                        0.12575994431972504,
                        -0.36780810356140137,
                        -0.008985756896436214,
                        -0.25850149989128113,
                        0.012435576878488064,
                        -0.010849079117178917,
                        0.14832808077335358,
                        -0.13435125350952148,
                        -0.040334269404411316,
                        -0.025134077295660973,
                        -0.012282646261155605,
                        -0.054781828075647354,
                        0.10224946588277817,
                        -0.06114834174513817,
                        0.009531937539577484,
                        -0.06305526196956635,
                        -0.27907824516296387,
                        -0.05694591999053955,
                        -0.0921107679605484,
                        0.04373150318861008,
                        0.027490779757499695,
                        -0.43216678500175476,
                        -0.3584953546524048,
                        -0.4218377470970154,
                        -0.30452102422714233,
                        0.0887758806347847,
                        0.05927388370037079,
                        0.24115534126758575,
                        -0.08624760806560516,
                        -0.11697401851415634,
                        -0.013637891039252281,
                        -0.06663277745246887,
                        0.16224946081638336,
                        -0.14151819050312042,
                        0.06529992818832397,
                        -0.017452651634812355,
                        -0.28341811895370483,
                        -0.023338256403803825,
                        -0.04870745167136192,
                        0.037199243903160095,
                        0.09344425052404404,
                        -0.07996726036071777,
                        0.07132076472043991,
                        0.12429693341255188,
                        -0.15247216820716858,
                        -0.02249661460518837,
                        0.13605090975761414,
                        0.0003263526887167245,
                        -0.08196894079446793,
                        -0.3299202620983124,
                        -0.04308303818106651,
                        0.0691259354352951,
                        0.009425532072782516,
                        -0.11111459881067276,
                        0.0770147293806076,
                        -0.11907260864973068,
                        -0.08371440321207047,
                        -0.054280947893857956,
                        0.06489471346139908,
                        0.16677837073802948,
                        -0.02794541046023369,
                        0.15699222683906555,
                        0.07277935743331909,
                        0.0037638910580426455,
                        -0.10107886791229248,
                        0.11521269381046295,
                        -0.04032791033387184,
                        0.05298175290226936,
                        -0.06528909504413605,
                        -0.027096649631857872,
                        0.05991307273507118,
                        -0.01572585105895996,
                        0.06774729490280151,
                        0.15205170214176178,
                        0.05783737823367119,
                        0.0019647106528282166,
                        0.14662566781044006,
                        0.11117994785308838,
                        0.06698042899370193,
                        -0.013387687504291534,
                        0.024999989196658134,
                        -0.06734322756528854,
                        0.2181389182806015,
                        -0.09913504868745804,
                        -0.14538522064685822,
                        0.246904194355011,
                        -0.09707188606262207,
                        0.12204664200544357,
                        0.006660166662186384,
                        -0.0002027126174652949,
                        0.27710434794425964,
                        -0.12685954570770264,
                        0.03994852676987648,
                        0.09071953594684601,
                        0.0022031955886632204,
                        -0.010201300494372845,
                        0.1596135050058365,
                        0.17745862901210785,
                        0.005532699637115002,
                        0.026043226942420006,
                        0.10306872427463531,
                        0.19927941262722015,
                        -0.02595158852636814,
                        0.04829889535903931,
                        -0.18376511335372925,
                        0.08640780299901962,
                        -0.021670766174793243,
                        0.021069563925266266,
                        -0.09630503505468369,
                        0.10775114595890045,
                        -0.0300142839550972,
                        0.003483198117464781,
                        0.02654578536748886,
                        -0.005674826446920633,
                        -0.08633390069007874,
                        -0.03971186280250549,
                        -0.07933425903320312,
                        0.0845114067196846,
                        0.07383158802986145,
